FANN_FLO_2.1
num_layers=3
learning_rate=0.700000
connection_rate=1.000000
network_type=0
learning_momentum=0.000000
training_algorithm=0
train_error_function=0
train_stop_function=0
cascade_output_change_fraction=0.010000
quickprop_decay=-0.000100
quickprop_mu=1.750000
rprop_increase_factor=1.200000
rprop_decrease_factor=0.500000
rprop_delta_min=0.000000
rprop_delta_max=50.000000
rprop_delta_zero=0.100000
cascade_output_stagnation_epochs=12
cascade_candidate_change_fraction=0.010000
cascade_candidate_stagnation_epochs=12
cascade_max_out_epochs=150
cascade_min_out_epochs=50
cascade_max_cand_epochs=150
cascade_min_cand_epochs=50
cascade_num_candidate_groups=2
bit_fail_limit=3.49999994039535520000e-001
cascade_candidate_limit=1.00000000000000000000e+003
cascade_weight_multiplier=4.00000005960464480000e-001
cascade_activation_functions_count=10
cascade_activation_functions=3 5 7 8 10 11 14 15 16 17 
cascade_activation_steepnesses_count=4
cascade_activation_steepnesses=2.50000000000000000000e-001 5.00000000000000000000e-001 7.50000000000000000000e-001 1.00000000000000000000e+000 
layer_sizes=77 37 4 
scale_included=0
neurons (num_inputs, activation_function, activation_steepness)=(0, 0, 0.00000000000000000000e+000) (0, 0, 0.00000000000000000000e+000) (0, 0, 0.00000000000000000000e+000) (0, 0, 0.00000000000000000000e+000) (0, 0, 0.00000000000000000000e+000) (0, 0, 0.00000000000000000000e+000) (0, 0, 0.00000000000000000000e+000) (0, 0, 0.00000000000000000000e+000) (0, 0, 0.00000000000000000000e+000) (0, 0, 0.00000000000000000000e+000) (0, 0, 0.00000000000000000000e+000) (0, 0, 0.00000000000000000000e+000) (0, 0, 0.00000000000000000000e+000) (0, 0, 0.00000000000000000000e+000) (0, 0, 0.00000000000000000000e+000) (0, 0, 0.00000000000000000000e+000) (0, 0, 0.00000000000000000000e+000) (0, 0, 0.00000000000000000000e+000) (0, 0, 0.00000000000000000000e+000) (0, 0, 0.00000000000000000000e+000) (0, 0, 0.00000000000000000000e+000) (0, 0, 0.00000000000000000000e+000) (0, 0, 0.00000000000000000000e+000) (0, 0, 0.00000000000000000000e+000) (0, 0, 0.00000000000000000000e+000) (0, 0, 0.00000000000000000000e+000) (0, 0, 0.00000000000000000000e+000) (0, 0, 0.00000000000000000000e+000) (0, 0, 0.00000000000000000000e+000) (0, 0, 0.00000000000000000000e+000) (0, 0, 0.00000000000000000000e+000) (0, 0, 0.00000000000000000000e+000) (0, 0, 0.00000000000000000000e+000) (0, 0, 0.00000000000000000000e+000) (0, 0, 0.00000000000000000000e+000) (0, 0, 0.00000000000000000000e+000) (0, 0, 0.00000000000000000000e+000) (0, 0, 0.00000000000000000000e+000) (0, 0, 0.00000000000000000000e+000) (0, 0, 0.00000000000000000000e+000) (0, 0, 0.00000000000000000000e+000) (0, 0, 0.00000000000000000000e+000) (0, 0, 0.00000000000000000000e+000) (0, 0, 0.00000000000000000000e+000) (0, 0, 0.00000000000000000000e+000) (0, 0, 0.00000000000000000000e+000) (0, 0, 0.00000000000000000000e+000) (0, 0, 0.00000000000000000000e+000) (0, 0, 0.00000000000000000000e+000) (0, 0, 0.00000000000000000000e+000) (0, 0, 0.00000000000000000000e+000) (0, 0, 0.00000000000000000000e+000) (0, 0, 0.00000000000000000000e+000) (0, 0, 0.00000000000000000000e+000) (0, 0, 0.00000000000000000000e+000) (0, 0, 0.00000000000000000000e+000) (0, 0, 0.00000000000000000000e+000) (0, 0, 0.00000000000000000000e+000) (0, 0, 0.00000000000000000000e+000) (0, 0, 0.00000000000000000000e+000) (0, 0, 0.00000000000000000000e+000) (0, 0, 0.00000000000000000000e+000) (0, 0, 0.00000000000000000000e+000) (0, 0, 0.00000000000000000000e+000) (0, 0, 0.00000000000000000000e+000) (0, 0, 0.00000000000000000000e+000) (0, 0, 0.00000000000000000000e+000) (0, 0, 0.00000000000000000000e+000) (0, 0, 0.00000000000000000000e+000) (0, 0, 0.00000000000000000000e+000) (0, 0, 0.00000000000000000000e+000) (0, 0, 0.00000000000000000000e+000) (0, 0, 0.00000000000000000000e+000) (0, 0, 0.00000000000000000000e+000) (0, 0, 0.00000000000000000000e+000) (0, 0, 0.00000000000000000000e+000) (0, 0, 0.00000000000000000000e+000) (77, 0, 5.00000000000000000000e-001) (77, 0, 5.00000000000000000000e-001) (77, 0, 5.00000000000000000000e-001) (77, 0, 5.00000000000000000000e-001) (77, 0, 5.00000000000000000000e-001) (77, 0, 5.00000000000000000000e-001) (77, 0, 5.00000000000000000000e-001) (77, 0, 5.00000000000000000000e-001) (77, 0, 5.00000000000000000000e-001) (77, 0, 5.00000000000000000000e-001) (77, 0, 5.00000000000000000000e-001) (77, 0, 5.00000000000000000000e-001) (77, 0, 5.00000000000000000000e-001) (77, 0, 5.00000000000000000000e-001) (77, 0, 5.00000000000000000000e-001) (77, 0, 5.00000000000000000000e-001) (77, 0, 5.00000000000000000000e-001) (77, 0, 5.00000000000000000000e-001) (77, 0, 5.00000000000000000000e-001) (77, 0, 5.00000000000000000000e-001) (77, 0, 5.00000000000000000000e-001) (77, 0, 5.00000000000000000000e-001) (77, 0, 5.00000000000000000000e-001) (77, 0, 5.00000000000000000000e-001) (77, 0, 5.00000000000000000000e-001) (77, 0, 5.00000000000000000000e-001) (77, 0, 5.00000000000000000000e-001) (77, 0, 5.00000000000000000000e-001) (77, 0, 5.00000000000000000000e-001) (77, 0, 5.00000000000000000000e-001) (77, 0, 5.00000000000000000000e-001) (77, 0, 5.00000000000000000000e-001) (77, 0, 5.00000000000000000000e-001) (77, 0, 5.00000000000000000000e-001) (77, 0, 5.00000000000000000000e-001) (77, 0, 5.00000000000000000000e-001) (0, 0, 5.00000000000000000000e-001) (37, 12, 5.00000000000000000000e-001) (37, 12, 5.00000000000000000000e-001) (37, 12, 5.00000000000000000000e-001) (0, 12, 5.00000000000000000000e-001) 
connections (connected_to_neuron, weight)=(0, -7.79262632131576540000e-002) (1, 5.62663897871971130000e-002) (2, -1.37653220444917680000e-002) (3, -4.84558120369911190000e-002) (4, -2.44404315948486330000e-001) (5, 1.62221208214759830000e-001) (6, 8.45159441232681270000e-002) (7, -8.21859240531921390000e-002) (8, -3.50085586309432980000e-001) (9, 2.04996228218078610000e-001) (10, 6.89059868454933170000e-002) (11, 6.20076768100261690000e-002) (12, -8.01963880658149720000e-002) (13, 1.28031358122825620000e-001) (14, 7.97726660966873170000e-002) (15, 3.15796025097370150000e-002) (16, -2.62777924537658690000e-001) (17, 2.39902175962924960000e-002) (18, 3.89016792178153990000e-002) (19, -9.37031581997871400000e-002) (20, -4.57592792809009550000e-002) (21, -5.72353079915046690000e-002) (22, 3.12282703816890720000e-002) (23, -3.74186523258686070000e-002) (24, -5.06138615310192110000e-002) (25, -1.07455469667911530000e-001) (26, -9.39904525876045230000e-002) (27, 8.83056297898292540000e-002) (28, 1.01459428668022160000e-001) (29, 5.77225573360919950000e-002) (30, 9.53596457839012150000e-002) (31, 7.91849568486213680000e-002) (32, -5.19255250692367550000e-002) (33, 2.29468956589698790000e-001) (34, 5.86273819208145140000e-002) (35, -5.19145093858242030000e-002) (36, 1.12193807959556580000e-001) (37, -1.92273214459419250000e-001) (38, -6.32572472095489500000e-002) (39, 7.84788951277732850000e-002) (40, 2.68356084823608400000e-001) (41, -5.46751096844673160000e-002) (42, -4.81748022139072420000e-002) (43, -4.67488951981067660000e-002) (44, 2.67314732074737550000e-001) (45, -3.69304269552230830000e-001) (46, -3.22629883885383610000e-002) (47, 9.01997089385986330000e-002) (48, 2.46958747506141660000e-001) (49, -2.16232180595397950000e-001) (50, -5.06478920578956600000e-003) (51, -8.46191868185997010000e-002) (52, 2.07731127738952640000e-001) (53, -1.81702092289924620000e-001) (54, -3.04917208850383760000e-002) (55, 5.62532246112823490000e-003) (56, 1.43821641802787780000e-001) (57, -7.55761936306953430000e-002) (58, 5.10275224223732950000e-003) (59, 3.14350388944149020000e-002) (60, 1.86838041990995410000e-002) (61, 3.40327054262161250000e-001) (62, 1.21134102344512940000e-001) (63, 3.15001532435417180000e-002) (64, 1.35925516486167910000e-001) (65, -3.19168359041213990000e-001) (66, -5.74876815080642700000e-002) (67, -4.98495586216449740000e-002) (68, -5.60456439852714540000e-002) (69, -1.19961507618427280000e-001) (70, 3.02360933274030690000e-002) (71, 6.89106434583663940000e-002) (72, 5.76967634260654450000e-002) (73, -1.64301879703998570000e-002) (74, -2.87579428404569630000e-002) (75, 6.34581521153450010000e-002) (76, -7.26807788014411930000e-002) (0, 1.08459249138832090000e-001) (1, -1.91018819808959960000e-001) (2, -6.58768340945243840000e-002) (3, -4.97680678963661190000e-002) (4, 2.34737306833267210000e-001) (5, -1.93636447191238400000e-001) (6, 1.56524255871772770000e-002) (7, 3.96687388420104980000e-002) (8, 3.38476151227951050000e-001) (9, -2.90748894214630130000e-001) (10, -1.19496382772922520000e-001) (11, -9.44906547665596010000e-002) (12, 1.37792214751243590000e-001) (13, -1.10387541353702550000e-001) (14, 8.62618312239646910000e-002) (15, 7.94860199093818660000e-002) (16, 9.86353754997253420000e-002) (17, -1.19717530906200410000e-001) (18, -4.31270226836204530000e-002) (19, 9.67427045106887820000e-002) (20, 1.54107753187417980000e-002) (21, 2.74865701794624330000e-003) (22, 7.98395276069641110000e-002) (23, -7.58444517850875850000e-002) (24, -1.68083235621452330000e-002) (25, -7.91241601109504700000e-003) (26, 2.11880938149988650000e-003) (27, -4.37134318053722380000e-002) (28, 6.58191591501235960000e-002) (29, 5.74310449883341790000e-003) (30, -5.87556995451450350000e-002) (31, -1.48967094719409940000e-002) (32, -3.43796946108341220000e-002) (33, -3.62895369529724120000e-001) (34, 1.53070676606148480000e-003) (35, 4.98269796371459960000e-002) (36, 2.36668400466442110000e-002) (37, 1.27144545316696170000e-001) (38, 9.10860970616340640000e-002) (39, -2.69165933132171630000e-002) (40, -8.68727192282676700000e-002) (41, 1.38320535421371460000e-001) (42, -5.84492795169353490000e-002) (43, 8.96442979574203490000e-002) (44, -3.93263399600982670000e-001) (45, 3.89097869396209720000e-001) (46, 5.59640526771545410000e-002) (47, -2.60153207927942280000e-002) (48, -2.99919724464416500000e-001) (49, 2.27728202939033510000e-001) (50, -8.81259366869926450000e-002) (51, 7.29247182607650760000e-002) (52, -2.40721210837364200000e-001) (53, 2.12836235761642460000e-001) (54, 4.27975170314311980000e-002) (55, 4.95929084718227390000e-002) (56, -9.59707051515579220000e-002) (57, -7.64629011973738670000e-003) (58, 1.27405568957328800000e-001) (59, -5.50009831786155700000e-002) (60, 8.52465331554412840000e-002) (61, -3.24831873178482060000e-001) (62, -6.70507326722145080000e-002) (63, -3.66212166845798490000e-002) (64, 3.07552069425582890000e-002) (65, 3.22662681341171260000e-001) (66, 3.76805141568183900000e-002) (67, -1.23333148658275600000e-002) (68, 1.23993031680583950000e-001) (69, 4.41434085369110110000e-002) (70, -5.47186248004436490000e-002) (71, 3.12783308327198030000e-002) (72, -6.62364473100751640000e-004) (73, 3.32434177398681640000e-002) (74, -9.90516990423202510000e-002) (75, -6.75416737794876100000e-002) (76, -2.56654340773820880000e-002) (0, 1.65464319288730620000e-002) (1, -1.70831792056560520000e-002) (2, 1.10512718558311460000e-001) (3, 5.49316406250000000000e-003) (4, 8.46808589994907380000e-003) (5, -1.07831813395023350000e-001) (6, -1.03938607499003410000e-002) (7, -8.09076130390167240000e-002) (8, 1.60065621137619020000e-001) (9, -3.35039317607879640000e-001) (10, 3.31521928310394290000e-002) (11, 7.92674645781517030000e-002) (12, 1.16980753839015960000e-001) (13, -3.14203053712844850000e-001) (14, 1.33401984348893170000e-002) (15, 4.87809255719184880000e-002) (16, -1.57795339822769170000e-001) (17, -7.41321742534637450000e-002) (18, -1.65196396410465240000e-002) (19, 1.10129686072468760000e-002) (20, -9.68119949102401730000e-002) (21, -7.79063403606414790000e-002) (22, -8.92882794141769410000e-002) (23, 5.17422743141651150000e-002) (24, -5.96653185784816740000e-002) (25, -6.21455237269401550000e-002) (26, 3.30546684563159940000e-002) (27, 8.19185376167297360000e-002) (28, -5.68668767809867860000e-002) (29, 1.45474392920732500000e-002) (30, -4.11094985902309420000e-002) (31, 8.27125608921051030000e-002) (32, 2.89599671959877010000e-002) (33, 2.75526702404022220000e-001) (34, 4.85214851796627040000e-002) (35, 5.40633387863636020000e-002) (36, -4.94582839310169220000e-002) (37, 1.58139199018478390000e-001) (38, -8.09276290237903590000e-003) (39, -5.19846901297569270000e-002) (40, 2.22463354468345640000e-001) (41, 1.70424476265907290000e-001) (42, -7.69836679100990300000e-002) (43, -3.19402068853378300000e-002) (44, -1.06178171932697300000e-001) (45, 3.29820543527603150000e-001) (46, 8.66598561406135560000e-002) (47, -8.42772722244262700000e-002) (48, -3.73933576047420500000e-002) (49, 8.19516554474830630000e-002) (50, -7.33070969581604000000e-002) (51, -3.42767387628555300000e-002) (52, -5.31355515122413640000e-002) (53, 4.56654727458953860000e-002) (54, -7.05289840698242190000e-002) (55, -4.91870827972888950000e-002) (56, -1.86641085892915730000e-002) (57, 1.64483770728111270000e-001) (58, -4.97233355417847630000e-004) (59, -6.22785538434982300000e-002) (60, -5.82482852041721340000e-002) (61, 1.40924051403999330000e-001) (62, -1.06281274929642680000e-002) (63, -2.46986541897058490000e-002) (64, 7.95324519276618960000e-002) (65, -6.42471015453338620000e-002) (66, -9.84026715159416200000e-002) (67, -3.77523503266274930000e-003) (68, -1.18711978197097780000e-001) (69, 1.58785119652748110000e-001) (70, -4.82652820646762850000e-002) (71, -4.65724952518939970000e-002) (72, 6.24222829937934880000e-002) (73, 5.30105642974376680000e-003) (74, -2.31023710221052170000e-002) (75, -2.74252463132143020000e-002) (76, 4.81179468333721160000e-002) (0, 3.58768962323665620000e-002) (1, 1.62277907133102420000e-001) (2, 2.98533011227846150000e-002) (3, -5.76232932507991790000e-002) (4, -2.98438481986522670000e-002) (5, 2.09456607699394230000e-001) (6, -9.13899671286344530000e-003) (7, -4.69972938299179080000e-002) (8, -1.78054183721542360000e-001) (9, 2.63764142990112300000e-001) (10, -3.28866243362426760000e-002) (11, -9.10771116614341740000e-002) (12, 1.58510655164718630000e-002) (13, 2.16657474637031560000e-001) (14, 5.25967776775360110000e-002) (15, 9.70513075590133670000e-002) (16, 2.28645846247673030000e-001) (17, 8.88964757323265080000e-002) (18, 1.10930316150188450000e-002) (19, 7.37051889300346370000e-002) (20, 7.17775970697402950000e-002) (21, -6.71602189540863040000e-002) (22, -7.95452371239662170000e-002) (23, 2.52124704420566560000e-002) (24, 1.31758088245987890000e-002) (25, -6.17129355669021610000e-002) (26, 9.78314280509948730000e-002) (27, 7.41807967424392700000e-002) (28, 5.83052784204483030000e-002) (29, -7.22692087292671200000e-002) (30, 6.37185946106910710000e-002) (31, -1.22940782457590100000e-002) (32, -3.39908413589000700000e-002) (33, -2.66565322875976560000e-001) (34, 1.02636992931365970000e-001) (35, 4.38335984945297240000e-002) (36, 2.07877960056066510000e-002) (37, -7.99376294016838070000e-002) (38, 8.08061063289642330000e-002) (39, -8.75874683260917660000e-002) (40, -3.16820293664932250000e-001) (41, -6.89321979880332950000e-002) (42, 3.88774685561656950000e-002) (43, -9.32944566011428830000e-002) (44, 8.80151614546775820000e-002) (45, -2.79476881027221680000e-001) (46, -1.12348586320877080000e-001) (47, 6.19054660201072690000e-002) (48, 2.98567395657300950000e-002) (49, -1.86127930879592900000e-001) (50, 8.00524652004241940000e-002) (51, -3.09110945090651510000e-003) (52, 3.80845591425895690000e-002) (53, -1.28309756517410280000e-001) (54, 5.30495755374431610000e-002) (55, 1.54816638678312300000e-002) (56, 8.85515101253986360000e-003) (57, -8.39956328272819520000e-002) (58, 3.90442833304405210000e-002) (59, 3.18285007961094380000e-003) (60, 1.04916371405124660000e-001) (61, -3.17045778036117550000e-001) (62, 1.34812137112021450000e-002) (63, -2.38071288913488390000e-002) (64, -5.48259094357490540000e-002) (65, 1.51148781180381770000e-001) (66, 1.85825359076261520000e-002) (67, 3.84057871997356410000e-002) (68, 6.09581917524337770000e-002) (69, -2.22502395510673520000e-001) (70, 1.75498500466346740000e-002) (71, 2.88310274481773380000e-003) (72, -4.80897910892963410000e-002) (73, 2.65885051339864730000e-002) (74, 1.81582244113087650000e-003) (75, 3.41267660260200500000e-002) (76, 3.57686132192611690000e-002) (0, 1.44180255010724070000e-002) (1, 1.29332646727561950000e-001) (2, -4.29011844098567960000e-002) (3, 2.08923351019620900000e-002) (4, -9.73118096590042110000e-002) (5, 2.84433215856552120000e-001) (6, 7.05813691020011900000e-002) (7, -1.16588259115815160000e-002) (8, -1.57377690076828000000e-001) (9, 3.07465702295303340000e-001) (10, 4.93997372686862950000e-002) (11, -5.29807135462760930000e-002) (12, -1.40886053442955020000e-001) (13, 7.76544362306594850000e-002) (14, -1.64545699954032900000e-002) (15, 2.41726767271757130000e-002) (16, 1.45177394151687620000e-001) (17, 5.86537607014179230000e-002) (18, 6.20799325406551360000e-002) (19, -8.29633772373199460000e-002) (20, -1.42824994400143620000e-002) (21, -6.12450577318668370000e-002) (22, -4.20018769800662990000e-002) (23, -2.51642931252717970000e-002) (24, 5.61162009835243230000e-002) (25, 2.02414263039827350000e-002) (26, -1.34837413206696510000e-002) (27, -6.26592934131622310000e-002) (28, -6.99237883090972900000e-002) (29, 4.79364544153213500000e-002) (30, 9.10552963614463810000e-002) (31, 6.13874010741710660000e-002) (32, -4.64399792253971100000e-002) (33, -2.49672252684831620000e-002) (34, -3.76697480678558350000e-002) (35, 6.64889067411422730000e-002) (36, -5.88860809803009030000e-002) (37, -9.75211635231971740000e-002) (38, 7.98814520239830020000e-002) (39, 3.08798607438802720000e-002) (40, -2.25070398300886150000e-003) (41, -1.19059033691883090000e-001) (42, 8.91838520765304570000e-002) (43, 6.91355392336845400000e-002) (44, 2.21131220459938050000e-001) (45, -4.30843830108642580000e-001) (46, 4.15371283888816830000e-002) (47, -7.72217139601707460000e-002) (48, 2.13623508810997010000e-001) (49, -9.11051705479621890000e-002) (50, 1.06480251997709270000e-003) (51, 9.49145853519439700000e-002) (52, 1.00846834480762480000e-001) (53, -7.71034806966781620000e-002) (54, 4.18276078999042510000e-002) (55, 6.03553317487239840000e-002) (56, 6.28316253423690800000e-002) (57, -9.01791304349899290000e-002) (58, -8.13981518149375920000e-002) (59, -1.76609214395284650000e-002) (60, 5.68377785384655000000e-002) (61, 3.71974594891071320000e-002) (62, 1.07944138348102570000e-001) (63, 6.71158432960510250000e-002) (64, 8.44689756631851200000e-002) (65, -2.76685506105422970000e-001) (66, -5.03632724285125730000e-002) (67, -1.22676296159625050000e-002) (68, -5.87759166955947880000e-002) (69, -1.61285519599914550000e-001) (70, 6.70817941427230830000e-002) (71, -9.18281227350234990000e-002) (72, 6.00404664874076840000e-002) (73, -8.92642736434936520000e-002) (74, 8.02284255623817440000e-002) (75, -6.08722120523452760000e-002) (76, 5.11904899030923840000e-003) (0, -5.68926185369491580000e-002) (1, -1.79023591044824570000e-005) (2, -3.35234403610229490000e-002) (3, 5.85388205945491790000e-002) (4, -2.28133991360664370000e-001) (5, 8.74387398362159730000e-002) (6, 2.51095741987228390000e-002) (7, -8.18811804056167600000e-002) (8, -8.13704282045364380000e-002) (9, 4.68230657279491420000e-002) (10, 1.15998022258281710000e-001) (11, 9.73093733191490170000e-002) (12, -9.87573489546775820000e-002) (13, -1.35164529085159300000e-001) (14, -6.01462945342063900000e-002) (15, -6.49917051196098330000e-002) (16, -4.76368427276611330000e-001) (17, -5.87483085691928860000e-002) (18, -7.65227596275508400000e-004) (19, -2.28617228567600250000e-002) (20, -1.86270609498023990000e-001) (21, -6.38994276523590090000e-002) (22, 6.42823576927185060000e-002) (23, -3.96776665002107620000e-003) (24, -5.70560880005359650000e-002) (25, 7.35091343522071840000e-002) (26, -1.08331523835659030000e-001) (27, 5.86090497672557830000e-002) (28, 5.61097776517272000000e-003) (29, -1.55909452587366100000e-002) (30, -7.20940157771110530000e-002) (31, -5.03595992922782900000e-002) (32, -6.94411434233188630000e-003) (33, 2.38104313611984250000e-001) (34, -8.74144397675991060000e-003) (35, -4.36604581773281100000e-002) (36, 2.97292590141296390000e-001) (37, 6.42983391880989070000e-002) (38, -6.99844062328338620000e-002) (39, -7.94417560100555420000e-002) (40, 5.09192764759063720000e-001) (41, 3.88487167656421660000e-002) (42, -4.37078811228275300000e-002) (43, -3.52365858852863310000e-002) (44, 2.27766275405883790000e-001) (45, -1.52048515155911450000e-002) (46, 6.15452751517295840000e-002) (47, -1.88340246677398680000e-003) (48, 3.48265767097473140000e-002) (49, -7.81425684690475460000e-002) (50, 2.44271531701087950000e-002) (51, 8.89286492019891740000e-003) (52, 1.11281454563140870000e-001) (53, 6.65750280022621150000e-002) (54, -8.50735083222389220000e-002) (55, 4.94725815951824190000e-002) (56, -1.65374688804149630000e-002) (57, 2.16282512992620470000e-002) (58, -1.46436691284179690000e-001) (59, 1.20124302804470060000e-001) (60, -8.44136327505111690000e-002) (61, 3.38088005781173710000e-001) (62, 6.69418498873710630000e-002) (63, 5.79391941428184510000e-002) (64, -5.66292069852352140000e-002) (65, -1.80244699120521550000e-001) (66, -6.52662888169288640000e-002) (67, 3.70015986263751980000e-002) (68, -2.29642778635025020000e-001) (69, 2.57595479488372800000e-001) (70, 9.82631370425224300000e-002) (71, -1.37577522546052930000e-002) (72, -2.63109151273965840000e-002) (73, 1.31320133805274960000e-002) (74, 3.02385054528713230000e-002) (75, 1.31002858281135560000e-001) (76, -5.37566617131233220000e-002) (0, -1.30263958126306530000e-002) (1, -3.45852226018905640000e-002) (2, -6.44640401005744930000e-002) (3, 7.84545913338661190000e-002) (4, 1.17910496890544890000e-001) (5, -2.82774299383163450000e-001) (6, -1.27625046297907830000e-003) (7, -4.86392714083194730000e-002) (8, 1.36379137635231020000e-001) (9, -3.66301685571670530000e-001) (10, -5.00972270965576170000e-002) (11, 1.64037759532220660000e-004) (12, 7.04217180609703060000e-002) (13, -2.54627943038940430000e-001) (14, 4.80664223432540890000e-002) (15, 6.03111227974295620000e-004) (16, -3.12843233346939090000e-001) (17, -9.17923301458358760000e-002) (18, 5.77133381739258770000e-003) (19, -6.00737333297729490000e-003) (20, -1.34250789880752560000e-001) (21, -1.03859622031450270000e-002) (22, -2.42592431604862210000e-002) (23, 6.46892562508583070000e-002) (24, -1.47457063198089600000e-001) (25, -6.20324164628982540000e-002) (26, 1.80205069482326510000e-002) (27, 1.48292789235711100000e-002) (28, 2.56719309836626050000e-002) (29, -8.95945802330970760000e-002) (30, -3.35908010601997380000e-002) (31, -8.24367552995681760000e-002) (32, 1.56354364007711410000e-002) (33, -1.25336963683366780000e-002) (34, 5.08725605905056000000e-002) (35, 3.00812274217605590000e-002) (36, 3.59760820865631100000e-002) (37, 1.23158261179924010000e-001) (38, 8.81332997232675550000e-003) (39, 4.76345531642436980000e-002) (40, 2.40043923258781430000e-001) (41, 1.56045794486999510000e-001) (42, 2.49489136040210720000e-002) (43, -2.01576016843318940000e-002) (44, -1.36381462216377260000e-001) (45, 4.86541986465454100000e-001) (46, -2.09492836147546770000e-002) (47, 3.04706972092390060000e-002) (48, -2.29610070586204530000e-001) (49, 1.70437887310981750000e-001) (50, 4.56022471189498900000e-002) (51, -3.79562154412269590000e-002) (52, -1.45778253674507140000e-001) (53, 1.01230174303054810000e-001) (54, 8.02771095186471940000e-003) (55, -7.35949650406837460000e-002) (56, -1.72662481665611270000e-001) (57, 1.85107797384262080000e-001) (58, -2.56171897053718570000e-002) (59, 4.26033474504947660000e-002) (60, -1.21579058468341830000e-001) (61, 2.03552916646003720000e-001) (62, -5.36458045244216920000e-002) (63, -9.67708751559257510000e-002) (64, 2.97436919063329700000e-002) (65, 2.48943820595741270000e-001) (66, -9.15456116199493410000e-002) (67, 9.05884057283401490000e-002) (68, -8.74254405498504640000e-002) (69, 2.72613644599914550000e-001) (70, -1.64201967418193820000e-002) (71, 8.38375091552734380000e-002) (72, -2.24904678761959080000e-002) (73, 5.13160414993762970000e-002) (74, -2.86765489727258680000e-002) (75, 3.83903980255126950000e-002) (76, -6.24579340219497680000e-002) (0, -9.42949950695037840000e-002) (1, 1.66760727763175960000e-001) (2, 8.17852374166250230000e-003) (3, -4.47082519531250000000e-002) (4, -8.28577429056167600000e-002) (5, 2.66745716333389280000e-001) (6, -1.54758468270301820000e-002) (7, -2.49999798834323880000e-002) (8, -2.81923294067382810000e-001) (9, 2.10280150175094600000e-001) (10, -1.91017088945955040000e-003) (11, 6.05041868984699250000e-002) (12, -2.18195524066686630000e-002) (13, 1.78480446338653560000e-001) (14, 5.16768395900726320000e-002) (15, 7.86622464656829830000e-002) (16, 2.46063873171806340000e-001) (17, 6.77115470170974730000e-002) (18, -1.11806370317935940000e-001) (19, 4.46045324206352230000e-002) (20, 1.15790881216526030000e-001) (21, -6.01577945053577420000e-002) (22, -8.31619948148727420000e-002) (23, 8.89404043555259700000e-002) (24, 1.29327192902565000000e-001) (25, -2.35405378043651580000e-002) (26, 1.03758148849010470000e-001) (27, -9.80894565582275390000e-002) (28, -7.81924873590469360000e-002) (29, -8.69915932416915890000e-002) (30, -5.56331053376197810000e-002) (31, 1.07606006786227230000e-002) (32, -7.16124847531318660000e-002) (33, -8.22720080614089970000e-002) (34, 5.16111701726913450000e-002) (35, -5.34239411354064940000e-002) (36, -3.24098691344261170000e-002) (37, -2.35692888498306270000e-001) (38, -3.63167785108089450000e-002) (39, 5.67872971296310420000e-002) (40, -1.96854248642921450000e-001) (41, -5.06973154842853550000e-002) (42, 3.40352505445480350000e-002) (43, 1.96534898132085800000e-002) (44, -1.77570211235433820000e-004) (45, -4.53347653150558470000e-001) (46, -1.09287925064563750000e-001) (47, 1.69435441493988040000e-002) (48, 1.81757539510726930000e-001) (49, -2.70713239908218380000e-001) (50, 7.95402973890304570000e-002) (51, 2.10817344486713410000e-002) (52, 2.50525563955307010000e-001) (53, -2.50572025775909420000e-001) (54, -2.13711783289909360000e-002) (55, -4.70396131277084350000e-002) (56, 1.04045033454895020000e-001) (57, -8.90812352299690250000e-002) (58, 7.13185667991638180000e-002) (59, -3.32395136356353760000e-002) (60, -1.08128851279616360000e-002) (61, -7.26187676191329960000e-002) (62, -5.68315349519252780000e-002) (63, 1.79079622030258180000e-002) (64, 1.03576995432376860000e-001) (65, -2.75725573301315310000e-001) (66, -2.64877229928970340000e-002) (67, -2.94431112706661220000e-002) (68, -2.13156151585280900000e-003) (69, -2.49942630529403690000e-001) (70, -1.23911663889884950000e-001) (71, 7.14385998435318470000e-004) (72, -6.78239613771438600000e-002) (73, -1.35765716433525090000e-001) (74, -2.45981700718402860000e-002) (75, -4.86508868634700780000e-002) (76, 8.30716919153928760000e-003) (0, -1.18687972426414490000e-001) (1, 2.31945812702178960000e-002) (2, -1.60723482258617880000e-003) (3, -2.55737314000725750000e-003) (4, -2.49610632658004760000e-001) (5, 1.58511176705360410000e-001) (6, 8.21529477834701540000e-002) (7, 7.29735344648361210000e-002) (8, -1.76365733146667480000e-001) (9, 6.33021816611289980000e-002) (10, 2.93608568608760830000e-002) (11, -2.82656867057085040000e-002) (12, -4.77445311844348910000e-002) (13, 1.18805272504687310000e-002) (14, 7.12481215596199040000e-002) (15, 2.62325052171945570000e-002) (16, -3.04256558418273930000e-001) (17, -3.53028662502765660000e-002) (18, 2.39315424114465710000e-002) (19, 1.77484825253486630000e-002) (20, -1.39115557074546810000e-001) (21, -4.36064377427101140000e-002) (22, -2.81096864491701130000e-002) (23, 5.70610649883747100000e-002) (24, 7.51860141754150390000e-002) (25, 2.54020318388938900000e-002) (26, -6.18308149278163910000e-002) (27, 2.81790718436241150000e-002) (28, 5.80453984439373020000e-002) (29, 1.30460383370518680000e-002) (30, 1.10829137265682220000e-001) (31, 2.61220950633287430000e-002) (32, -3.64047177135944370000e-002) (33, 1.02431863546371460000e-001) (34, 6.51005357503890990000e-002) (35, -7.98535048961639400000e-002) (36, 3.03995199501514430000e-002) (37, -1.16943813860416410000e-001) (38, -4.50172610580921170000e-002) (39, 7.35888704657554630000e-002) (40, 2.47353076934814450000e-001) (41, -1.09814072493463750000e-003) (42, 4.88325282931327820000e-002) (43, -4.83839586377143860000e-002) (44, 3.13938140869140630000e-001) (45, -2.55641728639602660000e-001) (46, -4.56772148609161380000e-002) (47, 4.80819828808307650000e-002) (48, 1.30952492356300350000e-001) (49, -7.71083384752273560000e-002) (50, 8.39042663574218750000e-002) (51, 6.28156587481498720000e-002) (52, 2.91955992579460140000e-002) (53, -1.09926961362361910000e-001) (54, -3.09076234698295590000e-002) (55, -3.94732281565666200000e-002) (56, 6.82123973965644840000e-002) (57, 1.34119270369410510000e-002) (58, -5.69084621965885160000e-002) (59, 4.26128283143043520000e-002) (60, 3.96979674696922300000e-002) (61, 2.52588063478469850000e-001) (62, -6.21552718803286550000e-003) (63, 6.30960986018180850000e-002) (64, 1.32583230733871460000e-001) (65, -1.81262761354446410000e-001) (66, 7.83420577645301820000e-002) (67, -8.00437182188034060000e-002) (68, -1.55397176742553710000e-001) (69, -5.33441901206970210000e-002) (70, -2.52410061657428740000e-002) (71, -4.68895249068737030000e-002) (72, -1.99265535920858380000e-002) (73, 8.75948071479797360000e-002) (74, -8.88920947909355160000e-002) (75, -1.97413023561239240000e-002) (76, 1.05441913008689880000e-001) (0, 1.33960574865341190000e-001) (1, -1.28847569227218630000e-001) (2, 8.42180401086807250000e-002) (3, -6.16943351924419400000e-002) (4, 1.48167923092842100000e-001) (5, -8.55012983083724980000e-002) (6, -1.71031784266233440000e-002) (7, -3.93875278532505040000e-002) (8, 2.23825857043266300000e-001) (9, 1.00291399285197260000e-002) (10, -4.02725264430046080000e-002) (11, -7.27264732122421260000e-002) (12, 8.13581645488739010000e-002) (13, 1.00592844188213350000e-001) (14, -4.19246293604373930000e-002) (15, -8.63329097628593440000e-002) (16, 3.96287560462951660000e-001) (17, -1.11649753525853160000e-002) (18, -3.89996320009231570000e-002) (19, 5.15379719436168670000e-002) (20, 1.19736053049564360000e-001) (21, 4.82235252857208250000e-002) (22, -9.61517973337322470000e-004) (23, -4.36567375436425210000e-003) (24, 9.94404256343841550000e-002) (25, 3.07213999330997470000e-002) (26, -6.77375495433807370000e-002) (27, 2.04191468656063080000e-002) (28, -3.56060266494750980000e-002) (29, -9.69985276460647580000e-002) (30, -8.49781110882759090000e-002) (31, -4.68980669975280760000e-002) (32, 8.29606875777244570000e-002) (33, -5.35398781299591060000e-001) (34, 2.87344288080930710000e-002) (35, 4.92429472506046300000e-002) (36, -1.78172826766967770000e-001) (37, -1.41383092850446700000e-002) (38, 8.47831219434738160000e-002) (39, 1.71796362847089770000e-002) (40, -3.87602537870407100000e-001) (41, 5.80848194658756260000e-002) (42, 8.64927545189857480000e-002) (43, -1.02420240640640260000e-001) (44, -3.36647748947143550000e-001) (45, 1.64684563875198360000e-001) (46, -3.60722430050373080000e-002) (47, 4.24317969009280200000e-003) (48, -4.75289970636367800000e-002) (49, 9.30190924555063250000e-003) (50, -4.82806265354156490000e-002) (51, 3.25497426092624660000e-002) (52, -1.15808367729187010000e-001) (53, 1.17812000215053560000e-001) (54, 1.56344585120677950000e-002) (55, -5.82843385636806490000e-002) (56, -1.91053807735443120000e-001) (57, -4.34620305895805360000e-002) (58, 7.89456143975257870000e-002) (59, -8.28952565789222720000e-002) (60, 5.66750951111316680000e-003) (61, -4.97542083263397220000e-001) (62, -4.39100898802280430000e-002) (63, 1.88914947211742400000e-002) (64, -1.40954390168190000000e-001) (65, 3.76024276018142700000e-001) (66, -3.09688188135623930000e-002) (67, 2.32967473566532140000e-002) (68, 2.44964167475700380000e-001) (69, -1.20340116322040560000e-001) (70, -5.51145449280738830000e-002) (71, 6.26567080616950990000e-002) (72, -2.76799183338880540000e-002) (73, -1.44137978553771970000e-001) (74, 7.31774643063545230000e-002) (75, -2.94407773762941360000e-002) (76, 5.12172281742095950000e-002) (0, 1.76363244652748110000e-001) (1, -2.31140300631523130000e-001) (2, -2.34667956829071040000e-002) (3, 3.18725593388080600000e-002) (4, 3.87584030628204350000e-001) (5, -2.97591835260391240000e-001) (6, -8.59938561916351320000e-003) (7, -3.11276633292436600000e-002) (8, 5.10163843631744380000e-001) (9, -4.58083122968673710000e-001) (10, -1.45468324422836300000e-001) (11, 2.60259713977575300000e-002) (12, 2.65240192413330080000e-001) (13, -1.57714098691940310000e-001) (14, -7.27713406085968020000e-002) (15, 6.77499696612358090000e-002) (16, 2.75580257177352910000e-001) (17, -6.96493685245513920000e-002) (18, -3.35697233676910400000e-002) (19, 2.56480723619461060000e-002) (20, 4.21536527574062350000e-002) (21, 2.83583905547857280000e-003) (22, -8.54926928877830510000e-002) (23, -9.71117019653320310000e-002) (24, -9.75654274225234990000e-002) (25, 6.45201578736305240000e-002) (26, -4.52195443212985990000e-002) (27, 3.21671664714813230000e-002) (28, -8.07717591524124150000e-002) (29, -7.57433772087097170000e-002) (30, -9.77018568664789200000e-003) (31, 6.83979541063308720000e-002) (32, 5.49949035048484800000e-002) (33, -4.95132833719253540000e-001) (34, 2.28271503001451490000e-002) (35, -1.02567262947559360000e-001) (36, -7.02848881483078000000e-002) (37, 1.23062826693058010000e-001) (38, 6.21695481240749360000e-002) (39, -5.79748414456844330000e-002) (40, -3.29318225383758540000e-001) (41, 2.27499067783355710000e-001) (42, -3.29817384481430050000e-002) (43, 4.63589392602443700000e-002) (44, -5.25667369365692140000e-001) (45, 6.68909668922424320000e-001) (46, 6.81823641061782840000e-002) (47, 2.02850010246038440000e-002) (48, -3.39464485645294190000e-001) (49, 2.13368520140647890000e-001) (50, -8.44132900238037110000e-002) (51, 2.46005076915025710000e-002) (52, -2.86770462989807130000e-001) (53, 2.60874539613723750000e-001) (54, -3.32947373390197750000e-002) (55, -1.21389344334602360000e-001) (56, -2.84549713134765630000e-001) (57, 9.12784319370985030000e-003) (58, 1.09030991792678830000e-001) (59, 7.11830779910087590000e-002) (60, 7.67131224274635310000e-002) (61, -4.40282881259918210000e-001) (62, 9.57612320780754090000e-003) (63, -4.34529222548007970000e-002) (64, -5.20509593188762660000e-002) (65, 4.27141964435577390000e-001) (66, -5.86279518902301790000e-002) (67, -8.38273763656616210000e-002) (68, 7.17861577868461610000e-002) (69, 1.76541209220886230000e-001) (70, -6.50090873241424560000e-002) (71, -3.21486592292785640000e-002) (72, -5.09426407516002660000e-002) (73, 6.78164437413215640000e-002) (74, 6.88444525003433230000e-002) (75, 3.33745940588414670000e-003) (76, 4.88269962370395660000e-002) (0, -2.16074377298355100000e-001) (1, 2.03950136899948120000e-001) (2, -3.80104817450046540000e-002) (3, 4.79003898799419400000e-002) (4, -2.61355280876159670000e-001) (5, 1.34649932384490970000e-001) (6, -1.11931720748543740000e-002) (7, -3.73739236965775490000e-003) (8, -3.74376654624938960000e-001) (9, 1.49826511740684510000e-001) (10, 1.26225054264068600000e-001) (11, 5.94258531928062440000e-002) (12, -1.70404762029647830000e-001) (13, 1.40591770410537720000e-001) (14, 1.41190364956855770000e-002) (15, 2.23388504236936570000e-002) (16, -4.03134465217590330000e-001) (17, 1.20485097169876100000e-001) (18, 6.04697456583380700000e-003) (19, 4.58658561110496520000e-002) (20, -7.34989270567893980000e-002) (21, 6.94752717390656470000e-003) (22, 8.20522233843803410000e-002) (23, -5.30863665044307710000e-002) (24, 6.87305331230163570000e-002) (25, -3.56455445289611820000e-002) (26, -7.28807449340820310000e-002) (27, -1.32934637367725370000e-002) (28, 9.94836837053298950000e-002) (29, 7.73997157812118530000e-002) (30, 6.30002468824386600000e-002) (31, 2.35575027763843540000e-002) (32, -1.51471258141100410000e-003) (33, 1.88948273658752440000e-001) (34, -2.21096966415643690000e-002) (35, -1.36576704680919650000e-002) (36, 2.93014287948608400000e-001) (37, -1.34929254651069640000e-001) (38, -9.38336998224258420000e-002) (39, 1.24896176159381870000e-001) (40, 3.08419138193130490000e-001) (41, -1.28061339259147640000e-001) (42, -8.07640776038169860000e-002) (43, -6.35583000257611270000e-003) (44, 4.64640647172927860000e-001) (45, -3.79091650247573850000e-001) (46, -1.18617646396160130000e-001) (47, 2.46663074940443040000e-002) (48, 1.88096165657043460000e-001) (49, -1.01644434034824370000e-001) (50, 9.16088931262493130000e-003) (51, 4.64660301804542540000e-002) (52, 1.37254610657691960000e-001) (53, -8.39829891920089720000e-002) (54, -2.53100041300058360000e-002) (55, 4.72203781828284260000e-003) (56, 1.35850787162780760000e-001) (57, 2.69066616892814640000e-002) (58, -3.11121512204408650000e-002) (59, 4.11885045468807220000e-002) (60, -2.46064476668834690000e-002) (61, 3.60535949468612670000e-001) (62, 1.31332367658615110000e-001) (63, -1.29028791561722760000e-002) (64, -4.06004227697849270000e-002) (65, -6.44947588443756100000e-002) (66, 1.57408381346613170000e-003) (67, 2.72317938506603240000e-002) (68, -2.12429955601692200000e-001) (69, 1.48074746131896970000e-001) (70, 9.81588661670684810000e-002) (71, -9.00681968778371810000e-003) (72, -6.04931451380252840000e-003) (73, 7.09548816084861760000e-002) (74, 7.01136812567710880000e-002) (75, 2.66112796962261200000e-002) (76, 1.24792397022247310000e-001) (0, -2.66760308295488360000e-002) (1, 1.91438302397727970000e-001) (2, 3.14147919416427610000e-002) (3, -2.49572750180959700000e-002) (4, -3.45485597848892210000e-001) (5, 9.05018523335456850000e-002) (6, 1.09397485852241520000e-001) (7, -5.83863556385040280000e-002) (8, -3.26365500688552860000e-001) (9, 1.63845047354698180000e-001) (10, -2.30323011055588720000e-003) (11, -4.21778485178947450000e-003) (12, -9.47721675038337710000e-002) (13, 1.29030466079711910000e-001) (14, -1.00680463016033170000e-001) (15, -3.44276311807334420000e-003) (16, -3.47188353538513180000e-001) (17, -1.00949108600616460000e-001) (18, -2.36716177314519880000e-002) (19, -7.22905471920967100000e-002) (20, -1.90732836723327640000e-001) (21, -7.63144120573997500000e-002) (22, -9.27384123206138610000e-002) (23, -4.14007604122161870000e-002) (24, 2.47542932629585270000e-002) (25, -1.80986113846302030000e-002) (26, -2.55755204707384110000e-002) (27, 7.42240399122238160000e-002) (28, -6.63402080535888670000e-002) (29, -5.43663930147886280000e-003) (30, -6.15861378610134120000e-002) (31, 5.56551665067672730000e-003) (32, 7.69439712166786190000e-002) (33, 5.35348832607269290000e-001) (34, -1.01003527641296390000e-001) (35, 9.16616618633270260000e-002) (36, 8.40730443596839900000e-002) (37, -5.80020584166049960000e-002) (38, 3.98648865520954130000e-002) (39, 4.53987019136548040000e-003) (40, 4.70866233110427860000e-001) (41, -1.12273246049880980000e-001) (42, -2.22451835870742800000e-002) (43, -3.17579284310340880000e-002) (44, 4.40975338220596310000e-001) (45, -3.70041757822036740000e-001) (46, -1.04733807966113090000e-002) (47, 3.31892189569771290000e-003) (48, 2.95096099376678470000e-001) (49, -7.24332556128501890000e-002) (50, -1.45211461931467060000e-002) (51, 2.79281660914421080000e-002) (52, 2.68863826990127560000e-001) (53, -9.96931865811347960000e-002) (54, 7.21140727400779720000e-002) (55, -5.32060489058494570000e-002) (56, 1.23799875378608700000e-001) (57, 1.78723800927400590000e-002) (58, -1.45527869462966920000e-002) (59, -4.06329445540905000000e-002) (60, -1.38375878334045410000e-001) (61, 5.28553485870361330000e-001) (62, -2.68149115145206450000e-002) (63, 1.83330588042736050000e-002) (64, 6.01697862148284910000e-002) (65, -4.26672935485839840000e-001) (66, 1.14951394498348240000e-001) (67, 6.97794407606124880000e-002) (68, -2.70152002573013310000e-001) (69, 6.50915503501892090000e-002) (70, 4.07205000519752500000e-002) (71, 6.23563071712851520000e-003) (72, -2.21919454634189610000e-002) (73, -1.34823180269449950000e-003) (74, -2.75123566389083860000e-002) (75, -3.61228846013545990000e-002) (76, 6.07398673892021180000e-002) (0, -6.68123960494995120000e-002) (1, -2.83667817711830140000e-002) (2, 3.08378115296363830000e-002) (3, 8.24523940682411190000e-002) (4, 4.97872233390808110000e-002) (5, 5.66440857946872710000e-002) (6, -5.50264772027730940000e-003) (7, -5.47699071466922760000e-002) (8, 7.09506422281265260000e-002) (9, 1.74808457493782040000e-001) (10, 7.91245792061090470000e-003) (11, -6.87622278928756710000e-002) (12, 5.24068996310234070000e-002) (13, 9.39504206180572510000e-002) (14, 3.65430638194084170000e-002) (15, 8.82842317223548890000e-002) (16, 3.70934069156646730000e-001) (17, 4.67486716806888580000e-002) (18, -5.76773360371589660000e-002) (19, -5.31617440283298490000e-002) (20, 4.75506447255611420000e-002) (21, 7.38391876220703130000e-002) (22, -4.51181828975677490000e-002) (23, -9.79324802756309510000e-003) (24, 2.06653065979480740000e-002) (25, -9.54256579279899600000e-002) (26, 2.11170986294746400000e-002) (27, 3.59617173671722410000e-002) (28, -8.45276117324829100000e-002) (29, -1.09494432806968690000e-001) (30, -9.39605981111526490000e-002) (31, 3.50187048316001890000e-002) (32, -3.83061310276389120000e-003) (33, -4.08199131488800050000e-001) (34, -1.92409437149763110000e-002) (35, -1.05505615472793580000e-001) (36, -1.60895377397537230000e-001) (37, 5.14298630878329280000e-003) (38, 1.01088270545005800000e-001) (39, 3.06851416826248170000e-002) (40, -4.69275414943695070000e-001) (41, -7.10908919572830200000e-002) (42, -5.31779304146766660000e-002) (43, 5.83065561950206760000e-002) (44, -7.17060789465904240000e-002) (45, -1.45225092768669130000e-001) (46, 7.72514268755912780000e-002) (47, -7.75973200798034670000e-002) (48, 6.09060265123844150000e-002) (49, -1.62593856453895570000e-001) (50, -8.33328887820243840000e-002) (51, 7.89974033832550050000e-002) (52, 7.66245201230049130000e-002) (53, -8.06656703352928160000e-002) (54, -1.00057825446128850000e-001) (55, 3.08802947402000430000e-002) (56, 1.24672325327992440000e-002) (57, -8.38680863380432130000e-002) (58, 9.76959336549043660000e-003) (59, 2.47004758566617970000e-002) (60, -1.15504162386059760000e-003) (61, -4.23316955566406250000e-001) (62, -6.48741424083709720000e-002) (63, 1.56275797635316850000e-002) (64, -7.71099776029586790000e-002) (65, 6.23254626989364620000e-002) (66, -1.84791330248117450000e-002) (67, -9.41350013017654420000e-002) (68, 2.01821208000183110000e-001) (69, -2.09326818585395810000e-001) (70, -1.16615928709506990000e-002) (71, -3.67772653698921200000e-002) (72, 7.76379033923149110000e-002) (73, -1.84280678629875180000e-001) (74, -4.99982805922627450000e-003) (75, 2.60248072445392610000e-002) (76, -1.22259287163615230000e-002) (0, -1.50968611240386960000e-001) (1, 8.94685741513967510000e-003) (2, 2.74298246949911120000e-002) (3, 5.11352531611919400000e-002) (4, -2.01075807213783260000e-001) (5, 1.60859022289514540000e-002) (6, 9.51729267835617070000e-002) (7, -5.83447739481925960000e-002) (8, -1.81160077452659610000e-001) (9, 1.92360758781433110000e-001) (10, 8.66828560829162600000e-002) (11, -9.10120531916618350000e-002) (12, -1.57633036375045780000e-001) (13, -7.79949650168418880000e-002) (14, 5.77585250139236450000e-002) (15, 8.07885602116584780000e-002) (16, -1.41188129782676700000e-001) (17, -5.69426566362380980000e-002) (18, 3.59432734549045560000e-002) (19, -8.36413055658340450000e-002) (20, 1.01940063759684560000e-002) (21, -8.73843953013420100000e-002) (22, -6.06731139123439790000e-002) (23, 6.92505612969398500000e-002) (24, 8.70329979807138440000e-003) (25, -8.31958875060081480000e-002) (26, -7.37521648406982420000e-002) (27, -4.03088144958019260000e-002) (28, -1.69726007152348760000e-003) (29, -4.61241640150547030000e-002) (30, 1.09444633126258850000e-002) (31, 3.79430912435054780000e-002) (32, 2.47585624456405640000e-002) (33, 3.80158424377441410000e-001) (34, 5.55689670145511630000e-002) (35, 2.00036782771348950000e-002) (36, 3.52942533791065220000e-002) (37, 1.14499870687723160000e-002) (38, 2.13654004037380220000e-002) (39, 7.67712891101837160000e-002) (40, 1.63774594664573670000e-001) (41, -1.38416647911071780000e-001) (42, -3.93606871366500850000e-002) (43, 5.80139383673667910000e-002) (44, 1.53281390666961670000e-001) (45, -3.09843957424163820000e-001) (46, 5.76189681887626650000e-002) (47, -6.76891580224037170000e-002) (48, 2.45134998112916950000e-002) (49, -1.18105970323085780000e-001) (50, 5.24011105298995970000e-002) (51, -7.56920948624610900000e-002) (52, 5.04753366112709050000e-002) (53, -4.09984774887561800000e-002) (54, 8.74485261738300320000e-003) (55, -6.95409998297691350000e-002) (56, 2.40351743996143340000e-002) (57, -2.18168087303638460000e-002) (58, -8.21314603090286250000e-002) (59, 9.45080071687698360000e-002) (60, -8.02176818251609800000e-002) (61, 2.49918162822723390000e-001) (62, 1.33791506290435790000e-001) (63, -7.59215280413627620000e-002) (64, 6.28477409482002260000e-002) (65, -3.44400197267532350000e-001) (66, -3.36204841732978820000e-002) (67, 2.94055584818124770000e-002) (68, -2.46917619369924070000e-003) (69, -1.02045103907585140000e-001) (70, 9.56317335367202760000e-002) (71, 6.56897351145744320000e-002) (72, 1.05516985058784480000e-001) (73, 9.99476462602615360000e-002) (74, 8.23753885924816130000e-003) (75, -3.98656651377677920000e-002) (76, -5.64611479640007020000e-002) (0, 2.36361593008041380000e-001) (1, -1.34106233716011050000e-001) (2, 2.19641029834747310000e-002) (3, 6.64062500000000000000e-002) (4, 2.87609547376632690000e-001) (5, -4.17798846960067750000e-001) (6, -1.24746911227703090000e-001) (7, -3.16611112793907520000e-004) (8, 3.65159571170806880000e-001) (9, -4.58640515804290770000e-001) (10, -1.20135203003883360000e-001) (11, 1.83792319148778920000e-002) (12, 2.12569281458854680000e-001) (13, -3.30304443836212160000e-001) (14, 2.95448657125234600000e-002) (15, -8.90968218445777890000e-002) (16, 7.81597346067428590000e-002) (17, -1.79187774658203130000e-001) (18, -5.81686086952686310000e-002) (19, -6.74400886055082080000e-004) (20, -6.09593763947486880000e-002) (21, 5.18905604258179660000e-003) (22, -1.73126962035894390000e-002) (23, -6.13852627575397490000e-002) (24, -8.33707004785537720000e-002) (25, 6.43081665039062500000e-002) (26, 2.08023469895124440000e-002) (27, -4.46608811616897580000e-002) (28, 7.79421851038932800000e-002) (29, -2.54028476774692540000e-002) (30, 9.84971299767494200000e-002) (31, 8.20854976773262020000e-002) (32, 4.41032424569129940000e-002) (33, -9.32565405964851380000e-002) (34, -8.09381678700447080000e-002) (35, 4.37744967639446260000e-002) (36, 3.45468744635581970000e-002) (37, 2.36199542880058290000e-001) (38, -4.20731343328952790000e-002) (39, -4.77530285716056820000e-002) (40, -8.19136798381805420000e-002) (41, 6.39857128262519840000e-002) (42, -1.99099965393543240000e-002) (43, 6.52604475617408750000e-002) (44, -4.23246562480926510000e-001) (45, 6.33711278438568120000e-001) (46, 1.13797724246978760000e-001) (47, -3.37988771498203280000e-002) (48, -2.27458938956260680000e-001) (49, 1.87517881393432620000e-001) (50, -2.83381901681423190000e-002) (51, 2.07489989697933200000e-002) (52, -3.17501842975616460000e-001) (53, 1.84608161449432370000e-001) (54, -1.68135166168212890000e-002) (55, 6.67580366134643550000e-002) (56, -1.51500076055526730000e-001) (57, 3.93151342868804930000e-002) (58, -4.86829951405525210000e-002) (59, -6.45280722528696060000e-003) (60, -5.21064847707748410000e-002) (61, -4.20134700834751130000e-002) (62, -7.99002572894096370000e-002) (63, -3.30328382551670070000e-002) (64, -1.86595823615789410000e-002) (65, 1.84998556971549990000e-001) (66, -5.73625527322292330000e-002) (67, -4.36643734574317930000e-002) (68, 1.44215628504753110000e-001) (69, 2.35095962882041930000e-001) (70, 1.97653155773878100000e-002) (71, -8.03518369793891910000e-002) (72, 8.09627249836921690000e-002) (73, 8.23414232581853870000e-003) (74, -2.23433654755353930000e-002) (75, -9.67938974499702450000e-002) (76, -4.46608383208513260000e-003) (0, 9.67477355152368550000e-003) (1, 1.97626367211341860000e-001) (2, 2.72343475371599200000e-002) (3, 7.39135732874274250000e-003) (4, -7.44150653481483460000e-002) (5, 3.19155216217041020000e-001) (6, -4.57562096416950230000e-002) (7, -1.21263852342963220000e-002) (8, -2.66860842704772950000e-001) (9, 2.93479353189468380000e-001) (10, 2.21523586660623550000e-002) (11, 2.30372697114944460000e-002) (12, -1.02052867412567140000e-001) (13, 2.90977150201797490000e-001) (14, -9.31958947330713270000e-003) (15, -5.34384697675704960000e-002) (16, 2.82613486051559450000e-001) (17, 1.32130026817321780000e-001) (18, -3.08850267902016640000e-003) (19, -5.36141805350780490000e-002) (20, 1.21891111135482790000e-001) (21, 2.26272698491811750000e-002) (22, 2.92582567781209950000e-002) (23, 8.69083181023597720000e-002) (24, -1.11320195719599720000e-002) (25, -9.33069735765457150000e-002) (26, 5.00143170356750490000e-002) (27, 1.06563001871109010000e-001) (28, -7.59721845388412480000e-002) (29, -7.23826736211776730000e-002) (30, -1.22243255376815800000e-001) (31, -7.79572948813438420000e-002) (32, 6.65756613016128540000e-002) (33, -3.29134792089462280000e-001) (34, -3.32462228834629060000e-002) (35, -2.95733492821455000000e-002) (36, -3.20557057857513430000e-002) (37, -1.51381134986877440000e-001) (38, 2.51297745853662490000e-002) (39, 2.04035248607397080000e-002) (40, -3.82097482681274410000e-001) (41, -9.19172614812850950000e-002) (42, 3.00421249121427540000e-002) (43, -1.60453580319881440000e-002) (44, -3.71271744370460510000e-002) (45, -4.28593784570693970000e-001) (46, 6.47366270422935490000e-002) (47, -4.03787828981876370000e-002) (48, 2.24956244230270390000e-001) (49, -1.99156492948532100000e-001) (50, -6.66421800851821900000e-002) (51, 3.86691428720951080000e-002) (52, 1.86485305428504940000e-001) (53, -2.21605718135833740000e-001) (54, 4.13706824183464050000e-002) (55, 1.05442874133586880000e-001) (56, 1.51678591966629030000e-001) (57, -3.83419543504714970000e-002) (58, -1.15887145511806010000e-003) (59, -3.69752310216426850000e-002) (60, 8.62576253712177280000e-003) (61, -1.75667658448219300000e-001) (62, -2.26399041712284090000e-002) (63, 1.56261697411537170000e-002) (64, 1.60802863538265230000e-002) (65, -9.44219604134559630000e-002) (66, -8.30983335617929700000e-004) (67, 3.88025343418121340000e-002) (68, 1.73317447304725650000e-001) (69, -3.07736724615097050000e-001) (70, 2.72274035960435870000e-002) (71, 6.88574835658073430000e-002) (72, 7.22156912088394170000e-002) (73, -2.04697042703628540000e-001) (74, -5.76448068022727970000e-003) (75, -5.74350915849208830000e-002) (76, -6.13778941333293910000e-002) (0, -5.79872541129589080000e-002) (1, -4.19694818556308750000e-002) (2, 7.92650878429412840000e-002) (3, -6.60827681422233580000e-002) (4, -1.01984307169914250000e-001) (5, 1.35058462619781490000e-001) (6, 8.07393714785575870000e-002) (7, 4.33377176523208620000e-002) (8, -8.44614431262016300000e-002) (9, 6.75080716609954830000e-002) (10, -5.77967986464500430000e-002) (11, -6.96172937750816350000e-002) (12, -6.70451223850250240000e-002) (13, 1.22086182236671450000e-001) (14, 1.13150380551815030000e-001) (15, 6.41561895608901980000e-002) (16, -1.91821251064538960000e-002) (17, 1.09368510544300080000e-001) (18, 5.11214695870876310000e-002) (19, 3.09251807630062100000e-002) (20, -2.83657219260931020000e-002) (21, -6.56501948833465580000e-002) (22, -6.11717402935028080000e-002) (23, 6.40333741903305050000e-002) (24, -9.21671018004417420000e-002) (25, 2.31245867908000950000e-002) (26, 9.31692570447921750000e-002) (27, 6.63921236991882320000e-002) (28, -6.35777413845062260000e-002) (29, -7.75293633341789250000e-002) (30, -4.03231084346771240000e-002) (31, -6.82182535529136660000e-002) (32, -6.78016841411590580000e-002) (33, -6.65762871503829960000e-002) (34, 4.73886840045452120000e-002) (35, 7.12559446692466740000e-002) (36, 1.18063338100910190000e-001) (37, -1.35871380567550660000e-001) (38, 9.30390227586030960000e-003) (39, -4.91331368684768680000e-002) (40, 1.77994482219219210000e-002) (41, 5.44392876327037810000e-003) (42, 1.62172485142946240000e-002) (43, -5.30733577907085420000e-002) (44, 1.06223344802856450000e-001) (45, -8.09887722134590150000e-002) (46, -9.69784110784530640000e-002) (47, -7.48174116015434270000e-002) (48, 1.55192077159881590000e-001) (49, -1.04001887142658230000e-001) (50, 5.96998371183872220000e-002) (51, 4.99899871647357940000e-002) (52, 1.21338620781898500000e-001) (53, -2.86416616290807720000e-002) (54, -4.62614521384239200000e-002) (55, 2.98571903258562090000e-002) (56, -1.33877666667103770000e-002) (57, -4.02580648660659790000e-002) (58, -6.58150538802146910000e-002) (59, 1.05537407100200650000e-001) (60, 5.98590187728405000000e-002) (61, 1.01756915450096130000e-001) (62, 7.02751278877258300000e-002) (63, -1.30023304373025890000e-002) (64, -1.07466287910938260000e-001) (65, 1.34634198620915410000e-002) (66, 3.62852253019809720000e-002) (67, 4.54049222171306610000e-002) (68, -1.06746964156627660000e-002) (69, 2.22076382488012310000e-002) (70, -3.24416272342205050000e-002) (71, -3.35047468543052670000e-002) (72, 5.44926039874553680000e-002) (73, -3.86634320020675660000e-002) (74, 7.68730118870735170000e-002) (75, -2.85154655575752260000e-002) (76, 5.96253983676433560000e-002) (0, -8.12023133039474490000e-002) (1, 2.74721793830394740000e-002) (2, 1.38991186395287510000e-003) (3, 2.08068843930959700000e-002) (4, -4.79511637240648270000e-003) (5, 1.75820097327232360000e-001) (6, 4.26039099693298340000e-002) (7, -1.00813601166009900000e-002) (8, -8.88313353061676030000e-002) (9, 4.70305420458316800000e-002) (10, -5.21310418844223020000e-003) (11, -1.00326322019100190000e-001) (12, 1.69309638440608980000e-002) (13, 8.16712379455566410000e-002) (14, 7.32367187738418580000e-002) (15, -4.43233409896492960000e-003) (16, 1.28422617912292480000e-001) (17, 6.78637772798538210000e-002) (18, 4.99365180730819700000e-002) (19, -1.16389542818069460000e-002) (20, 6.71934848651289940000e-003) (21, 2.72794961929321290000e-002) (22, -6.04214072227478030000e-002) (23, -9.38456058502197270000e-002) (24, 7.64515623450279240000e-002) (25, -4.10609394311904910000e-002) (26, -1.00852087140083310000e-001) (27, 1.24549036845564840000e-002) (28, 8.30250307917594910000e-002) (29, 4.23038424924016000000e-003) (30, -4.83778901398181920000e-002) (31, 7.15752094984054570000e-002) (32, -8.03421735763549800000e-002) (33, 3.22664529085159300000e-001) (34, 2.56553466897457840000e-004) (35, -5.75247295200824740000e-002) (36, -1.55001923441886900000e-001) (37, -6.68648704886436460000e-002) (38, 5.75630590319633480000e-002) (39, -1.75999831408262250000e-002) (40, -7.65753686428070070000e-002) (41, -2.32007335871458050000e-002) (42, -2.41447743028402330000e-002) (43, 4.15508225560188290000e-002) (44, 1.53983965516090390000e-001) (45, -2.73170262575149540000e-001) (46, 2.54031028598546980000e-002) (47, -7.00197815895080570000e-002) (48, 1.92411199212074280000e-001) (49, -8.80423784255981450000e-002) (50, -2.16053129406645890000e-004) (51, -6.19371123611927030000e-002) (52, 1.03454835712909700000e-001) (53, -3.85891497135162350000e-002) (54, 5.30041493475437160000e-002) (55, -1.08352683484554290000e-001) (56, 1.32364973425865170000e-001) (57, 2.21395492553710940000e-002) (58, 1.26382447779178620000e-002) (59, -7.66921490430831910000e-002) (60, -1.03068806231021880000e-001) (61, 1.42811372876167300000e-001) (62, 4.71487231552600860000e-002) (63, 4.08326797187328340000e-002) (64, 1.33653417229652400000e-001) (65, -2.44508981704711910000e-001) (66, -4.14646677672863010000e-002) (67, 7.41717368364334110000e-002) (68, -1.14249773323535920000e-001) (69, -1.22881114482879640000e-001) (70, -6.36249035596847530000e-002) (71, 8.22545066475868230000e-002) (72, -5.81630766391754150000e-002) (73, -1.07190236449241640000e-002) (74, 8.74679684638977050000e-002) (75, 7.37533206120133400000e-004) (76, -9.17551815509796140000e-002) (0, 1.13384120166301730000e-001) (1, -9.43663865327835080000e-002) (2, 1.90968457609415050000e-002) (3, -8.29956084489822390000e-002) (4, 1.80083066225051880000e-001) (5, 3.57865020632743840000e-002) (6, 2.55272015929222110000e-002) (7, -3.16514037549495700000e-002) (8, 1.88683062791824340000e-001) (9, -1.00466921925544740000e-001) (10, -1.11895464360713960000e-001) (11, 6.74039870500564580000e-002) (12, 2.24053878337144850000e-002) (13, 1.94850549101829530000e-001) (14, -5.26663800701498990000e-003) (15, -5.08595118299126630000e-003) (16, 2.51481056213378910000e-001) (17, 2.84805577248334880000e-002) (18, -7.33205229043960570000e-002) (19, 3.43625620007514950000e-002) (20, 1.81317299604415890000e-001) (21, 1.29850909113883970000e-001) (22, -3.62840853631496430000e-002) (23, -3.40456119738519190000e-003) (24, -6.03277087211608890000e-002) (25, 4.43607792258262630000e-002) (26, -3.77244912087917330000e-002) (27, -8.48362147808074950000e-002) (28, -5.66646717488765720000e-002) (29, -6.93599693477153780000e-003) (30, -1.03330634534358980000e-001) (31, 6.85953646898269650000e-002) (32, -5.50817027688026430000e-002) (33, -5.20087063312530520000e-001) (34, 5.07544055581092830000e-002) (35, 8.59126299619674680000e-002) (36, -2.03881084918975830000e-001) (37, -4.58400435745716090000e-002) (38, 4.04314212501049040000e-002) (39, -8.43410752713680270000e-003) (40, -3.93315702676773070000e-001) (41, 3.83003279566764830000e-002) (42, -9.27326083183288570000e-002) (43, -5.39099350571632390000e-002) (44, -2.45091587305068970000e-001) (45, 1.16094246506690980000e-001) (46, -2.54111085087060930000e-003) (47, -6.13120421767234800000e-002) (48, -8.68377834558486940000e-002) (49, 5.45258931815624240000e-002) (50, 7.07326680421829220000e-002) (51, -1.19392452761530880000e-002) (52, -1.79831773042678830000e-001) (53, -5.37055060267448430000e-002) (54, -2.71531678736209870000e-002) (55, -9.23393890261650090000e-002) (56, -6.01114928722381590000e-002) (57, -2.89612915366888050000e-002) (58, 9.81919392943382260000e-002) (59, -8.36576707661151890000e-003) (60, -1.62792559713125230000e-002) (61, -4.60875004529953000000e-001) (62, -5.95223642885684970000e-002) (63, 7.77623727917671200000e-002) (64, -1.46298497915267940000e-001) (65, 1.89849019050598140000e-001) (66, -9.80394780635833740000e-002) (67, -5.64402639865875240000e-002) (68, 7.91540518403053280000e-002) (69, -1.34321376681327820000e-001) (70, -2.67310161143541340000e-002) (71, 9.18583944439888000000e-002) (72, -4.08876016736030580000e-002) (73, -4.24859337508678440000e-002) (74, 1.15999178960919380000e-002) (75, 8.20819586515426640000e-002) (76, -9.06963646411895750000e-002) (0, -8.36264155805110930000e-003) (1, 4.16284166276454930000e-002) (2, 5.86132034659385680000e-002) (3, 2.42675784975290300000e-002) (4, -5.25769405066967010000e-003) (5, 2.62450426816940310000e-001) (6, 8.01298469305038450000e-002) (7, -4.06554713845252990000e-002) (8, -2.04553324729204180000e-002) (9, 2.86206066608428960000e-001) (10, -8.55736657977104190000e-002) (11, 5.21118231117725370000e-002) (12, -1.27832349389791490000e-002) (13, 2.63070493936538700000e-001) (14, 1.09569117426872250000e-001) (15, -8.26964676380157470000e-002) (16, 2.16330081224441530000e-001) (17, 3.05238012224435810000e-002) (18, -2.81676184386014940000e-003) (19, -3.68346720933914180000e-002) (20, 5.53663000464439390000e-002) (21, 7.93140232563018800000e-002) (22, 1.64648033678531650000e-002) (23, -4.37071919441223140000e-002) (24, 6.28303810954093930000e-002) (25, -5.96988350152969360000e-002) (26, -2.12566498667001720000e-002) (27, 6.79749920964241030000e-002) (28, -1.03911094367504120000e-001) (29, -2.91251596063375470000e-002) (30, 5.43418191373348240000e-002) (31, -6.64488896727561950000e-002) (32, 1.83274522423744200000e-002) (33, -1.29739075899124150000e-001) (34, -2.84022856503725050000e-002) (35, -4.41832356154918670000e-002) (36, -1.35176837444305420000e-001) (37, -1.62351205945014950000e-001) (38, -1.44437318667769430000e-002) (39, -1.61253530532121660000e-002) (40, -2.37496659159660340000e-001) (41, -1.52213826775550840000e-001) (42, -5.37861697375774380000e-002) (43, -1.38533313293010000000e-003) (44, -2.45148576796054840000e-002) (45, -1.63539990782737730000e-001) (46, 2.55512297153472900000e-002) (47, -6.39585256576538090000e-002) (48, 1.23344026505947110000e-001) (49, -4.82109710574150090000e-002) (50, -8.48837848752737050000e-003) (51, 7.98342004418373110000e-002) (52, 5.13115199282765390000e-003) (53, -3.37104648351669310000e-002) (54, -1.44092887639999390000e-002) (55, -4.58127893507480620000e-002) (56, 3.13589163124561310000e-002) (57, -1.25397771596908570000e-001) (58, 4.96336221694946290000e-002) (59, -5.15988580882549290000e-002) (60, -3.61220315098762510000e-002) (61, -1.98808342218399050000e-001) (62, 5.93408420681953430000e-002) (63, 4.24828846007585530000e-003) (64, 2.05269772559404370000e-002) (65, -1.21041513979434970000e-001) (66, -7.22687169909477230000e-002) (67, -2.39841849543154240000e-003) (68, 1.20268560945987700000e-001) (69, -2.10089221596717830000e-001) (70, -2.39712558686733250000e-002) (71, -5.46628311276435850000e-002) (72, 1.97398662567138670000e-002) (73, -5.50447329878807070000e-002) (74, 2.80814673751592640000e-002) (75, 6.89822360873222350000e-002) (76, 8.58279764652252200000e-002) (0, 1.12700432538986210000e-001) (1, -1.91309049725532530000e-001) (2, 1.80713757872581480000e-002) (3, 2.24792491644620900000e-002) (4, 1.78441628813743590000e-001) (5, -3.03757369518280030000e-001) (6, 1.50667494162917140000e-002) (7, 1.45698841661214830000e-002) (8, 3.64395081996917720000e-001) (9, -4.35935944318771360000e-001) (10, 5.86119778454303740000e-002) (11, 6.57119005918502810000e-002) (12, 9.16420668363571170000e-002) (13, -2.77806252241134640000e-001) (14, -2.17656809836626050000e-002) (15, -6.57142624258995060000e-002) (16, -9.26579162478446960000e-002) (17, -8.63999426364898680000e-002) (18, 8.44054445624351500000e-002) (19, 6.98029622435569760000e-002) (20, -1.10819116234779360000e-001) (21, 3.83397378027439120000e-002) (22, 7.34298452734947200000e-002) (23, -4.12071049213409420000e-002) (24, -4.19326499104499820000e-002) (25, 5.56405931711196900000e-002) (26, 1.64930280297994610000e-002) (27, 4.46091368794441220000e-002) (28, 2.70682722330093380000e-002) (29, 3.73299345374107360000e-002) (30, -3.75796072185039520000e-002) (31, -7.27911815047264100000e-002) (32, -1.14010227844119070000e-002) (33, 1.56140074133872990000e-001) (34, -9.49568599462509160000e-002) (35, 4.93348091840744020000e-002) (36, -2.06807795912027360000e-002) (37, 1.89288616180419920000e-001) (38, 6.95855394005775450000e-002) (39, -2.47489158064126970000e-002) (40, 8.16633179783821110000e-002) (41, 6.96660652756690980000e-002) (42, 7.03175291419029240000e-002) (43, 6.82999342679977420000e-002) (44, -1.95894688367843630000e-001) (45, 4.96257394552230830000e-001) (46, 6.25856220722198490000e-002) (47, 7.35374763607978820000e-002) (48, -2.73624807596206670000e-001) (49, 3.01007658243179320000e-001) (50, 4.81323041021823880000e-002) (51, 1.17280436679720880000e-002) (52, -2.62290954589843750000e-001) (53, 2.11560457944870000000e-001) (54, 3.92022579908370970000e-002) (55, -1.09151311218738560000e-001) (56, -3.49857956171035770000e-002) (57, 3.69555875658988950000e-002) (58, -3.76324690878391270000e-002) (59, 4.15208414196968080000e-002) (60, -1.24402880668640140000e-001) (61, 7.88102000951766970000e-002) (62, 5.82432299852371220000e-002) (63, -1.75848416984081270000e-002) (64, 9.46651026606559750000e-002) (65, 9.53869894146919250000e-003) (66, 9.07249096781015400000e-003) (67, 2.20644045621156690000e-002) (68, -3.45592983067035680000e-002) (69, 1.20360039174556730000e-001) (70, 1.19101881980896000000e-001) (71, -9.67945829033851620000e-002) (72, 3.75294722616672520000e-002) (73, 7.57962614297866820000e-002) (74, 8.23327898979187010000e-003) (75, -1.04026585817337040000e-001) (76, -5.90253695845603940000e-002) (0, 7.36326053738594060000e-002) (1, -2.63517796993255620000e-001) (2, 1.11226320266723630000e-001) (3, 6.37023970484733580000e-002) (4, 2.66156587749719620000e-002) (5, -3.60304623842239380000e-001) (6, 3.25228343717753890000e-003) (7, -2.79704313725233080000e-002) (8, 2.66048163175582890000e-001) (9, -5.70243179798126220000e-001) (10, 3.98238152265548710000e-002) (11, -5.97372502088546750000e-002) (12, 1.37274742126464840000e-001) (13, -4.50388133525848390000e-001) (14, -2.51263640820980070000e-002) (15, -5.23132942616939540000e-002) (16, -4.10972028970718380000e-001) (17, -1.55999436974525450000e-001) (18, -6.07624314725399020000e-002) (19, -5.21465986967086790000e-002) (20, -1.36909395456314090000e-001) (21, -5.61930760741233830000e-002) (22, -9.35237556695938110000e-002) (23, -5.86326271295547490000e-002) (24, -2.83310804516077040000e-002) (25, -5.96817433834075930000e-002) (26, 4.71892766654491420000e-002) (27, -2.90895663201808930000e-002) (28, 2.14421357959508900000e-002) (29, -4.87483218312263490000e-002) (30, -5.95059990882873540000e-002) (31, 1.98259688913822170000e-002) (32, 9.73989069461822510000e-003) (33, 3.51122021675109860000e-001) (34, -8.60063955187797550000e-002) (35, -1.04561753571033480000e-001) (36, 3.58703024685382840000e-002) (37, 3.16818267107009890000e-001) (38, -1.17259565740823750000e-002) (39, 7.83749893307685850000e-002) (40, 4.70899969339370730000e-001) (41, 2.36591398715972900000e-001) (42, 3.82851101458072660000e-002) (43, 1.91972441971302030000e-002) (44, -1.99127212166786190000e-001) (45, 6.69535398483276370000e-001) (46, 9.05916243791580200000e-002) (47, 6.35107308626174930000e-002) (48, -2.99570620059967040000e-001) (49, 3.43673199415206910000e-001) (50, 2.46013351716101170000e-003) (51, -1.13153621554374690000e-001) (52, -3.19650471210479740000e-001) (53, 3.22161853313446040000e-001) (54, 9.54613741487264630000e-003) (55, 2.05887202173471450000e-002) (56, -1.95269942283630370000e-001) (57, 2.49036669731140140000e-001) (58, -2.04526022076606750000e-001) (59, -4.98988069593906400000e-002) (60, -1.56214401125907900000e-001) (61, 3.71833950281143190000e-001) (62, -1.61581225693225860000e-002) (63, -3.35393697023391720000e-002) (64, 1.33083820343017580000e-001) (65, 4.27458211779594420000e-002) (66, -4.60719503462314610000e-002) (67, 5.28822690248489380000e-002) (68, -6.34939372539520260000e-002) (69, 2.43241012096405030000e-001) (70, -7.41412257775664330000e-003) (71, -1.28322569653391840000e-002) (72, -5.55738396942615510000e-002) (73, 1.08949765563011170000e-001) (74, -1.22466623783111570000e-001) (75, -5.85211813449859620000e-002) (76, -1.73285361379384990000e-002) (0, 7.64282196760177610000e-002) (1, -2.00284346938133240000e-001) (2, 1.09497085213661190000e-002) (3, -1.89758297055959700000e-002) (4, 4.37734872102737430000e-002) (5, -1.52862638235092160000e-001) (6, 2.81388387084007260000e-002) (7, -5.05711957812309270000e-002) (8, 2.91908472776412960000e-001) (9, -3.16852957010269170000e-001) (10, -6.96042105555534360000e-002) (11, 9.77223590016365050000e-002) (12, -2.52217222005128860000e-002) (13, -2.12451770901679990000e-001) (14, 3.28531749546527860000e-002) (15, -5.23299276828765870000e-002) (16, -5.99977597594261170000e-002) (17, 1.89245231449604030000e-002) (18, 8.56367219239473340000e-003) (19, 8.53984430432319640000e-002) (20, -6.03281669318675990000e-002) (21, -7.42180794477462770000e-002) (22, -1.21395848691463470000e-002) (23, 1.76947917789220810000e-002) (24, -2.50818766653537750000e-002) (25, -1.73360742628574370000e-002) (26, -1.60621497780084610000e-002) (27, 3.02095413208007810000e-002) (28, 7.57443830370903020000e-002) (29, -2.72302832454442980000e-002) (30, -7.09461001679301260000e-003) (31, 3.91820725053548810000e-003) (32, -3.25825996696949010000e-002) (33, -1.42726987600326540000e-001) (34, 8.66035819053649900000e-002) (35, 4.59740497171878810000e-002) (36, 4.77744406089186670000e-003) (37, 2.84147914499044420000e-002) (38, 5.69684281945228580000e-002) (39, 9.13135334849357600000e-002) (40, 1.95995476096868520000e-002) (41, 5.94717543572187420000e-003) (42, 3.83540429174900050000e-002) (43, -6.88036978244781490000e-002) (44, -2.16767042875289920000e-001) (45, 4.01418149471282960000e-001) (46, 6.73326551914215090000e-002) (47, 2.49428953975439070000e-002) (48, -2.24976584315299990000e-001) (49, 2.15502768754959110000e-001) (50, 4.63080815970897670000e-002) (51, -4.88765053451061250000e-002) (52, -2.26339295506477360000e-001) (53, 9.82118099927902220000e-002) (54, 9.58897266536951070000e-003) (55, 5.44768236577510830000e-002) (56, -1.49431630969047550000e-001) (57, 1.19526654481887820000e-001) (58, -8.89750346541404720000e-002) (59, -5.52617982029914860000e-002) (60, 7.70254582166671750000e-002) (61, -8.44143554568290710000e-002) (62, 7.69828557968139650000e-002) (63, 3.72519926168024540000e-003) (64, 6.79275169968605040000e-002) (65, 1.69769391417503360000e-001) (66, -1.35974045842885970000e-002) (67, -4.31777872145175930000e-002) (68, -6.01656958460807800000e-002) (69, 2.45389610528945920000e-001) (70, 7.04026371240615840000e-002) (71, 6.51927292346954350000e-002) (72, 2.51659117639064790000e-002) (73, 1.21773611754179000000e-002) (74, -6.02345028892159460000e-003) (75, -5.03780692815780640000e-003) (76, -8.22961181402206420000e-002) (0, -1.17166666314005850000e-002) (1, 4.43916693329811100000e-002) (2, -7.40229636430740360000e-002) (3, -5.49499504268169400000e-002) (4, -1.38881862163543700000e-001) (5, 1.22935555875301360000e-001) (6, -6.16284236311912540000e-002) (7, 3.35989892482757570000e-002) (8, -6.92884624004364010000e-002) (9, 1.87417641282081600000e-001) (10, 5.80103229731321330000e-003) (11, -7.88286253809928890000e-002) (12, -6.45383670926094060000e-002) (13, 2.25123077630996700000e-001) (14, 5.86165823042392730000e-002) (15, 9.93504896759986880000e-002) (16, 9.58668068051338200000e-002) (17, 4.37070382758975030000e-003) (18, -2.78410520404577260000e-002) (19, 5.85598051548004150000e-002) (20, 1.44889146089553830000e-001) (21, -8.26856773346662520000e-003) (22, 4.47657005861401560000e-003) (23, -2.33380515128374100000e-002) (24, 3.00105137284845110000e-004) (25, -8.11553001403808590000e-002) (26, 5.20184775814414020000e-003) (27, -4.54008486121892930000e-003) (28, 3.60539890825748440000e-002) (29, 4.13658693432807920000e-002) (30, -3.39545309543609620000e-002) (31, -8.37036296725273130000e-002) (32, 5.99222742021083830000e-002) (33, 6.24174659606069330000e-004) (34, -1.40704503282904620000e-002) (35, 4.61112074553966520000e-002) (36, -9.02507156133651730000e-002) (37, -1.85973253101110460000e-002) (38, 9.71249565482139590000e-002) (39, 2.50715874135494230000e-002) (40, -2.12864845991134640000e-001) (41, -1.74071475863456730000e-001) (42, 2.00839433819055560000e-002) (43, -3.28394323587417600000e-002) (44, 1.53261646628379820000e-001) (45, -3.12368392944335940000e-001) (46, 4.15020920336246490000e-002) (47, -5.51792457699775700000e-002) (48, 2.15545907616615300000e-001) (49, -1.60331740975379940000e-001) (50, 3.96345667541027070000e-002) (51, -5.09197637438774110000e-002) (52, 1.11201241612434390000e-001) (53, -1.98368504643440250000e-001) (54, 9.86469611525535580000e-002) (55, -4.37490083277225490000e-002) (56, 1.07988128438591960000e-002) (57, -4.34287488460540770000e-002) (58, -1.39992414042353630000e-002) (59, 3.25562544167041780000e-002) (60, 2.17849388718605040000e-002) (61, -2.54009757190942760000e-002) (62, -2.14626863598823550000e-002) (63, 1.07866652309894560000e-001) (64, -9.24869328737258910000e-002) (65, -4.70035374164581300000e-002) (66, 1.02329224348068240000e-001) (67, -5.01114726066589360000e-002) (68, 5.22141270339488980000e-002) (69, -1.07699774205684660000e-001) (70, 3.12923118472099300000e-002) (71, -3.01110856235027310000e-002) (72, 8.45359638333320620000e-002) (73, -4.35453355312347410000e-002) (74, -7.79858827590942380000e-002) (75, -8.57877451926469800000e-003) (76, 1.04165352880954740000e-001) (0, 9.83727872371673580000e-002) (1, -7.32673034071922300000e-002) (2, -2.11591552942991260000e-002) (3, 7.85522460937500000000e-002) (4, 1.06979817152023320000e-001) (5, 7.14765116572380070000e-002) (6, 6.16522654891014100000e-002) (7, -5.76859526336193080000e-002) (8, 2.07343511283397670000e-002) (9, 1.05593867599964140000e-001) (10, -3.57515588402748110000e-002) (11, 3.63860055804252620000e-002) (12, 1.38229846954345700000e-001) (13, 4.71767075359821320000e-002) (14, -6.17872998118400570000e-002) (15, 1.82630086783319710000e-003) (16, 3.14850419759750370000e-001) (17, 6.54868632555007930000e-002) (18, 3.00750005990266800000e-002) (19, -8.45461115241050720000e-002) (20, 1.28584071993827820000e-001) (21, -5.20714111626148220000e-002) (22, -1.59480608999729160000e-002) (23, -9.19451415538787840000e-002) (24, 5.84110207855701450000e-002) (25, 9.59518328309059140000e-002) (26, 6.46229386329650880000e-002) (27, -6.23630359768867490000e-002) (28, -1.12163886427879330000e-001) (29, 2.29732282459735870000e-002) (30, -1.07187680900096890000e-001) (31, -7.59510919451713560000e-002) (32, -8.69060903787612920000e-002) (33, -8.85046496987342830000e-002) (34, 4.13537072017788890000e-003) (35, -4.88835386931896210000e-002) (36, -2.11465746164321900000e-001) (37, -5.12586236000061040000e-002) (38, 5.54615184664726260000e-002) (39, -5.73263168334960940000e-002) (40, -3.91010761260986330000e-001) (41, 6.54456689953804020000e-002) (42, 1.30968783050775530000e-002) (43, -8.13634917140007020000e-002) (44, -1.97054386138916020000e-001) (45, 2.54142489284276960000e-002) (46, 4.66994903981685640000e-002) (47, 3.73910106718540190000e-002) (48, -8.16449895501136780000e-002) (49, 7.33279958367347720000e-002) (50, 8.96331146359443660000e-002) (51, -6.91901221871376040000e-002) (52, -3.40278670191764830000e-002) (53, 1.68614946305751800000e-002) (54, 5.79098053276538850000e-002) (55, -6.19712993502616880000e-002) (56, 5.59274703264236450000e-002) (57, -6.90858364105224610000e-002) (58, -4.61547169834375380000e-003) (59, -5.56252785027027130000e-002) (60, 5.91899454593658450000e-002) (61, -2.46276482939720150000e-001) (62, 7.68642919138073920000e-003) (63, 3.15680019557476040000e-002) (64, 8.08686390519142150000e-002) (65, -8.49958062171936040000e-002) (66, -6.78925588726997380000e-002) (67, 4.55068610608577730000e-002) (68, 1.06109276413917540000e-001) (69, -1.89173012971878050000e-001) (70, -7.30798840522766110000e-002) (71, 8.79247561097145080000e-002) (72, -9.81073975563049320000e-002) (73, -1.01525932550430300000e-002) (74, -9.81676653027534480000e-002) (75, 3.80633771419525150000e-002) (76, -9.72148925065994260000e-002) (0, 1.43177792429924010000e-001) (1, -2.66451150178909300000e-001) (2, -7.56641328334808350000e-002) (3, -5.71228042244911190000e-002) (4, 2.03445658087730410000e-001) (5, -4.16624486446380620000e-001) (6, -6.89598917961120610000e-002) (7, -6.10427297651767730000e-002) (8, 3.13190281391143800000e-001) (9, -4.01892006397247310000e-001) (10, -1.12959325313568120000e-001) (11, 2.76826135814189910000e-002) (12, 1.10846310853958130000e-001) (13, -3.11259984970092770000e-001) (14, -1.38132825493812560000e-001) (15, 8.06290358304977420000e-002) (16, -2.46602028608322140000e-001) (17, -1.54765963554382320000e-001) (18, 3.92661653459072110000e-002) (19, 3.43081131577491760000e-002) (20, -5.48076517879962920000e-002) (21, -3.08703053742647170000e-002) (22, 2.43779793381690980000e-002) (23, -8.51207375526428220000e-002) (24, -1.29116222262382510000e-001) (25, 1.04929648339748380000e-001) (26, 8.36160928010940550000e-002) (27, -5.86024671792984010000e-002) (28, -6.32106214761734010000e-002) (29, 7.88133889436721800000e-002) (30, -2.20975186675786970000e-002) (31, -1.11857047304511070000e-002) (32, 1.00767657160758970000e-001) (33, -1.27391904592514040000e-001) (34, 7.36365318298339840000e-002) (35, -7.95839820057153700000e-003) (36, 3.37991374544799330000e-003) (37, 2.45511993765830990000e-001) (38, -6.98379054665565490000e-002) (39, -2.77901589870452880000e-002) (40, 3.01335304975509640000e-001) (41, 1.78985044360160830000e-001) (42, 5.44850267469882970000e-002) (43, 6.64955079555511470000e-002) (44, -8.57934728264808650000e-002) (45, 6.67890965938568120000e-001) (46, -7.34488654416054490000e-004) (47, 4.26842384040355680000e-002) (48, -3.09591978788375850000e-001) (49, 3.34382176399230960000e-001) (50, -8.18194001913070680000e-002) (51, 7.97738656401634220000e-002) (52, -2.75893568992614750000e-001) (53, 1.87298268079757690000e-001) (54, 6.64440318942070010000e-002) (55, 9.58368033170700070000e-002) (56, -2.04731106758117680000e-001) (57, 1.60331770777702330000e-001) (58, 5.74554577469825740000e-002) (59, 4.36810869723558430000e-003) (60, -8.19983775727450850000e-004) (61, -4.79244766756892200000e-003) (62, -2.94553209096193310000e-002) (63, -1.95591226220130920000e-002) (64, 4.06628027558326720000e-002) (65, 1.92487940192222600000e-001) (66, -7.74868503212928770000e-002) (67, -8.21460112929344180000e-002) (68, -1.08285076916217800000e-001) (69, 2.83277064561843870000e-001) (70, 1.48564830422401430000e-001) (71, -4.14492040872573850000e-002) (72, 6.60032182931900020000e-002) (73, 1.37310430407524110000e-001) (74, 1.19204809889197350000e-002) (75, 7.55598545074462890000e-002) (76, -8.62748473882675170000e-002) (0, 5.17751984298229220000e-002) (1, -1.73976663500070570000e-002) (2, -7.83181376755237580000e-003) (3, 6.01745620369911190000e-002) (4, -8.94971936941146850000e-003) (5, 1.40259698033332820000e-001) (6, 1.41470050439238550000e-002) (7, -4.02435995638370510000e-002) (8, -6.48211389780044560000e-002) (9, -1.75979714840650560000e-002) (10, 4.32440266013145450000e-002) (11, -4.09730188548564910000e-002) (12, 5.18813058733940120000e-002) (13, 9.05151218175888060000e-002) (14, 5.59562109410762790000e-002) (15, -1.45845590159296990000e-002) (16, 2.44619444012641910000e-001) (17, -6.67282287031412120000e-003) (18, 3.36646698415279390000e-002) (19, 6.62107095122337340000e-002) (20, 1.13564334809780120000e-001) (21, -7.06027969717979430000e-002) (22, 6.06742054224014280000e-002) (23, -7.72922039031982420000e-002) (24, 9.78781282901763920000e-002) (25, 2.71388851106166840000e-002) (26, -1.07373902574181560000e-002) (27, -2.41740792989730830000e-003) (28, -6.08503855764865880000e-002) (29, -9.88274589180946350000e-002) (30, 3.52075174450874330000e-002) (31, -2.82750390470027920000e-002) (32, -1.14242948591709140000e-001) (33, -1.40121966600418090000e-001) (34, -1.42417559400200840000e-002) (35, -7.32549354434013370000e-002) (36, -1.43198996782302860000e-001) (37, -3.35100851953029630000e-002) (38, -8.32623764872550960000e-002) (39, 9.45065822452306750000e-003) (40, -2.98082888126373290000e-001) (41, 2.76135909371078010000e-003) (42, 5.96997700631618500000e-002) (43, -4.54413741827011110000e-002) (44, -4.04729396104812620000e-002) (45, -1.02121189236640930000e-001) (46, -9.63814631104469300000e-002) (47, -7.82264694571495060000e-002) (48, 1.37318344786763190000e-002) (49, 9.26754903048276900000e-004) (50, -7.80169069766998290000e-002) (51, 3.69176547974348070000e-003) (52, 4.45397160947322850000e-002) (53, 5.04261665046215060000e-002) (54, 6.84545934200286870000e-002) (55, 6.05245903134346010000e-002) (56, 6.70569762587547300000e-002) (57, 5.34740574657917020000e-002) (58, -3.74600440263748170000e-002) (59, 3.81459780037403110000e-002) (60, 7.02135711908340450000e-002) (61, -1.25075340270996090000e-001) (62, 7.26158246397972110000e-002) (63, 2.55086291581392290000e-002) (64, 9.96821746230125430000e-002) (65, -8.84747207164764400000e-002) (66, 1.15809038281440730000e-001) (67, 7.79917091131210330000e-003) (68, 4.36626933515071870000e-003) (69, -1.82484179735183720000e-001) (70, -3.82923856377601620000e-002) (71, -2.84588206559419630000e-002) (72, -8.20399001240730290000e-002) (73, -1.04522474110126500000e-001) (74, 1.10562145709991460000e-002) (75, -8.20996612310409550000e-002) (76, -1.03528285399079320000e-002) (0, 4.69403006136417390000e-002) (1, -6.55652880668640140000e-002) (2, 5.24192042648792270000e-002) (3, -5.42785637080669400000e-002) (4, -9.26777627319097520000e-003) (5, -3.06709390133619310000e-002) (6, 3.26828286051750180000e-002) (7, -4.03534136712551120000e-002) (8, -5.48846125602722170000e-002) (9, 3.16770821809768680000e-002) (10, -5.89813478291034700000e-002) (11, 2.99987457692623140000e-002) (12, -6.96581648662686350000e-003) (13, -1.53206244111061100000e-001) (14, -4.89215664565563200000e-002) (15, -5.82611113786697390000e-002) (16, -3.97668331861495970000e-001) (17, -6.73524662852287290000e-002) (18, -6.22250251471996310000e-002) (19, 1.06243886053562160000e-001) (20, -1.83484956622123720000e-001) (21, -1.43763870000839230000e-002) (22, -5.00968918204307560000e-002) (23, -4.50165867805480960000e-002) (24, -7.01955100521445270000e-003) (25, -5.49441501498222350000e-002) (26, -1.11438939347863200000e-002) (27, -7.26868212223052980000e-002) (28, 7.64175429940223690000e-002) (29, 3.09839136898517610000e-002) (30, 3.42209748923778530000e-002) (31, -1.62934046238660810000e-002) (32, 1.03259630501270290000e-001) (33, 1.23634576797485350000e-001) (34, 3.84260974824428560000e-002) (35, 7.55796656012535100000e-002) (36, 1.33107930421829220000e-001) (37, 8.07430520653724670000e-002) (38, 6.07853755354881290000e-002) (39, 1.03054769337177280000e-001) (40, 3.74058693647384640000e-001) (41, -6.64983782917261120000e-003) (42, -1.67399495840072630000e-002) (43, -8.17274395376443860000e-003) (44, 1.84303224086761470000e-001) (45, 4.42215241491794590000e-002) (46, 9.70259010791778560000e-002) (47, 2.04374715685844420000e-002) (48, -4.99701313674449920000e-002) (49, 5.07978908717632290000e-002) (50, -6.73692021518945690000e-003) (51, 2.91868578642606740000e-002) (52, 3.70757505297660830000e-002) (53, -2.81956177204847340000e-002) (54, -6.36231005191802980000e-002) (55, 4.19279038906097410000e-002) (56, -6.63472898304462430000e-003) (57, 1.25425560399889950000e-002) (58, 3.21082845330238340000e-002) (59, -6.79873526096343990000e-002) (60, -5.95168173313140870000e-002) (61, 1.90959900617599490000e-001) (62, -3.23279611766338350000e-002) (63, 6.36442527174949650000e-002) (64, 9.44670662283897400000e-003) (65, 8.16425755620002750000e-002) (66, 2.68416479229927060000e-002) (67, -6.01931326091289520000e-002) (68, -8.68038311600685120000e-002) (69, 2.70252883434295650000e-001) (70, 4.09806147217750550000e-002) (71, -1.18135847151279450000e-002) (72, 9.61084067821502690000e-002) (73, 1.87312617897987370000e-001) (74, 1.20780931320041420000e-003) (75, 1.16119198501110080000e-001) (76, 2.90890969336032870000e-002) (0, 5.98595142364501950000e-002) (1, -1.73837468028068540000e-001) (2, -6.03766180574893950000e-002) (3, -4.47937026619911190000e-002) (4, 2.62492626905441280000e-001) (5, -2.91265726089477540000e-001) (6, 4.15428616106510160000e-002) (7, -1.75903849303722380000e-002) (8, 3.55598360300064090000e-001) (9, -3.48751634359359740000e-001) (10, -9.29892063140869140000e-003) (11, 5.64268864691257480000e-002) (12, 1.90048620104789730000e-001) (13, -3.32911998033523560000e-001) (14, 1.02062579244375230000e-002) (15, 2.59947199374437330000e-002) (16, 9.32634025812149050000e-002) (17, -1.98879688978195190000e-002) (18, 1.08405515551567080000e-001) (19, 2.22409758716821670000e-002) (20, -2.20480896532535550000e-002) (21, -7.71581158041954040000e-002) (22, 3.31890163943171500000e-003) (23, -9.46351960301399230000e-002) (24, 1.00572193041443820000e-002) (25, -5.65377250313758850000e-002) (26, -4.22364920377731320000e-002) (27, -5.23074567317962650000e-002) (28, -9.06767770648002620000e-002) (29, -9.94346477091312410000e-003) (30, 8.03252756595611570000e-002) (31, 5.92768751084804530000e-002) (32, 1.43897272646427150000e-002) (33, 5.69421127438545230000e-002) (34, 5.54820522665977480000e-002) (35, -3.76774556934833530000e-002) (36, -3.78527641296386720000e-002) (37, 2.25853130221366880000e-001) (38, 7.21534788608551030000e-002) (39, 2.07392703741788860000e-002) (40, -5.26512935757637020000e-002) (41, 1.72043532133102420000e-001) (42, 7.97470062971115110000e-002) (43, -6.90618380904197690000e-002) (44, -3.55719536542892460000e-001) (45, 5.61686098575592040000e-001) (46, 9.91106480360031130000e-002) (47, -1.96905359625816350000e-002) (48, -2.11321994662284850000e-001) (49, 2.37993776798248290000e-001) (50, -9.91989001631736760000e-002) (51, -1.20581708848476410000e-001) (52, -2.78475016355514530000e-001) (53, 1.61592781543731690000e-001) (54, 3.86019013822078700000e-002) (55, 7.43705779314041140000e-002) (56, -1.75604104995727540000e-001) (57, 2.30390131473541260000e-002) (58, -5.36153391003608700000e-002) (59, -5.45295923948287960000e-002) (60, 6.77065830677747730000e-003) (61, -1.49069234728813170000e-001) (62, 5.59655837714672090000e-002) (63, -1.57553458120673890000e-003) (64, -2.00835764408111570000e-002) (65, 3.25715579092502590000e-002) (66, -2.75943018496036530000e-002) (67, 5.44363074004650120000e-002) (68, -2.22214478999376300000e-002) (69, 2.22123861312866210000e-002) (70, -6.08830596320331100000e-004) (71, -5.46640008687973020000e-002) (72, 8.32619592547416690000e-002) (73, -9.21808406710624690000e-002) (74, -4.16913069784641270000e-002) (75, -7.99447745084762570000e-002) (76, -4.41049896180629730000e-002) (0, 6.74257576465606690000e-002) (1, 3.05786356329917910000e-002) (2, -9.00811776518821720000e-002) (3, -6.72668442130088810000e-002) (4, -1.12923681735992430000e-001) (5, -1.05864666402339940000e-001) (6, 7.86617118865251540000e-003) (7, -1.60873588174581530000e-002) (8, 4.92851622402668000000e-002) (9, -2.15859562158584590000e-002) (10, -7.90331214666366580000e-002) (11, -2.02334090135991570000e-003) (12, -1.80653911083936690000e-002) (13, -4.02179732918739320000e-002) (14, 1.77683122456073760000e-002) (15, -7.88345560431480410000e-002) (16, -2.23679512739181520000e-001) (17, -1.36525735259056090000e-001) (18, -3.46456095576286320000e-002) (19, -5.68237677216529850000e-002) (20, -1.28629177808761600000e-001) (21, -6.89556226134300230000e-002) (22, -2.33883224427700040000e-002) (23, 1.05110198259353640000e-001) (24, 4.33481819927692410000e-002) (25, -1.00416280329227450000e-001) (26, -8.95359590649604800000e-002) (27, 4.21416498720645900000e-002) (28, 8.45485106110572810000e-002) (29, -2.96515356749296190000e-002) (30, 2.23683211952447890000e-002) (31, 4.22774143517017360000e-002) (32, 3.43984551727771760000e-003) (33, 1.68377041816711430000e-001) (34, -9.52255651354789730000e-002) (35, 1.02300949394702910000e-001) (36, 1.14690430462360380000e-001) (37, 4.13070619106292720000e-002) (38, -3.83370853960514070000e-002) (39, -3.77122052013874050000e-002) (40, 2.20839843153953550000e-001) (41, 1.42476838082075120000e-002) (42, 2.80971080064773560000e-002) (43, -1.43550554639659820000e-004) (44, 1.28561973571777340000e-001) (45, 3.97552140057086940000e-002) (46, -8.52029174566268920000e-002) (47, -3.45414727926254270000e-002) (48, -4.51212562620639800000e-002) (49, -6.57396996393799780000e-003) (50, -8.62578004598617550000e-002) (51, 3.99290658533573150000e-002) (52, 1.04012219235301020000e-002) (53, 9.00796577334403990000e-002) (54, 4.69013443216681480000e-003) (55, -4.48471354320645330000e-003) (56, -5.98373776301741600000e-003) (57, -6.27392977476120000000e-002) (58, -1.48027926683425900000e-001) (59, -5.82551695406436920000e-002) (60, 6.24307356774806980000e-002) (61, 3.03688585758209230000e-001) (62, 1.06951162219047550000e-001) (63, 3.72175350785255430000e-002) (64, 1.27533286809921260000e-001) (65, -3.68590317666530610000e-002) (66, -6.45666718482971190000e-002) (67, 4.87607941031455990000e-002) (68, -9.40370336174964900000e-002) (69, -2.11228597909212110000e-002) (70, 5.57157136499881740000e-002) (71, -6.09849616885185240000e-002) (72, 3.16455923020839690000e-002) (73, 1.05014234781265260000e-001) (74, 6.48140385746955870000e-002) (75, -3.61604765057563780000e-002) (76, 2.10904721170663830000e-002) (0, 1.78017124533653260000e-001) (1, -2.11703523993492130000e-001) (2, 6.82114958763122560000e-002) (3, -6.68823271989822390000e-002) (4, 1.19174867868423460000e-001) (5, -4.60361063480377200000e-001) (6, -3.87531779706478120000e-002) (7, -5.11274449527263640000e-002) (8, 4.25674825906753540000e-001) (9, -6.63320124149322510000e-001) (10, -8.62745791673660280000e-002) (11, 6.01168461143970490000e-002) (12, 9.83203351497650150000e-002) (13, -6.07767581939697270000e-001) (14, -6.55153300613164900000e-003) (15, 3.68946865200996400000e-002) (16, -4.43916231393814090000e-001) (17, -2.16649636626243590000e-001) (18, 2.63455975800752640000e-002) (19, 3.96673753857612610000e-002) (20, -1.69267371296882630000e-001) (21, -3.59661877155303960000e-002) (22, 7.67103433609008790000e-002) (23, -4.24171350896358490000e-002) (24, -1.39430671930313110000e-001) (25, 9.77336093783378600000e-002) (26, 6.82685673236846920000e-002) (27, -8.87289419770240780000e-002) (28, -7.84165039658546450000e-002) (29, -4.73198154941201210000e-003) (30, 1.13997794687747960000e-001) (31, 7.62811899185180660000e-002) (32, 1.11049197614192960000e-001) (33, 4.48666542768478390000e-001) (34, -3.59204933047294620000e-002) (35, -1.16496548056602480000e-001) (36, 2.02931910753250120000e-001) (37, 3.21183890104293820000e-001) (38, -3.56024242937564850000e-002) (39, -4.72078025341033940000e-002) (40, 5.75563192367553710000e-001) (41, 1.36377424001693730000e-001) (42, -2.67376508563756940000e-002) (43, 1.60323958843946460000e-002) (44, -4.54084090888500210000e-002) (45, 7.55311608314514160000e-001) (46, 8.62628370523452760000e-002) (47, -1.40928840264678000000e-002) (48, -3.43082010746002200000e-001) (49, 2.66605854034423830000e-001) (50, -1.11987628042697910000e-001) (51, 2.66497991979122160000e-002) (52, -2.74270266294479370000e-001) (53, 3.59573364257812500000e-001) (54, 8.34744051098823550000e-003) (55, -1.70558430254459380000e-002) (56, -5.41386790573596950000e-002) (57, 2.39986419677734380000e-001) (58, -1.75879552960395810000e-001) (59, 2.33205743134021760000e-002) (60, -5.79373314976692200000e-002) (61, 4.33289736509323120000e-001) (62, 3.77095192670822140000e-002) (63, -1.45739018917083740000e-001) (64, 5.76486773788928990000e-002) (65, 6.32073804736137390000e-002) (66, 4.33743782341480260000e-002) (67, -3.88037562370300290000e-002) (68, -1.33987471461296080000e-001) (69, 4.28591609001159670000e-001) (70, 2.13776659220457080000e-002) (71, 3.28043922781944270000e-002) (72, -6.32939161732792850000e-003) (73, 2.27857887744903560000e-001) (74, -1.25638648867607120000e-001) (75, 2.46579218655824660000e-002) (76, 1.03023946285247800000e-002) (0, -3.44185903668403630000e-002) (1, -6.79958537220954900000e-002) (2, 8.61942619085311890000e-002) (3, -6.43676742911338810000e-002) (4, -7.06102252006530760000e-002) (5, 9.27350390702486040000e-003) (6, 2.91739753447473050000e-003) (7, -3.35585959255695340000e-002) (8, 2.18757651746273040000e-002) (9, -6.65660277009010310000e-002) (10, -6.67726099491119380000e-002) (11, 8.65266099572181700000e-002) (12, 8.83268937468528750000e-003) (13, -1.30476862192153930000e-001) (14, 3.27862054109573360000e-002) (15, 4.27324101328849790000e-002) (16, -1.96960955858230590000e-001) (17, -2.75133587419986720000e-002) (18, -2.87103597074747090000e-002) (19, 1.43922688439488410000e-002) (20, -1.11287115141749380000e-002) (21, -6.97992444038391110000e-002) (22, 4.76181693375110630000e-002) (23, -6.67244056239724160000e-003) (24, 4.70458306372165680000e-002) (25, -5.64056262373924260000e-003) (26, 3.63127179443836210000e-002) (27, 6.42367228865623470000e-002) (28, -9.63688455522060390000e-003) (29, -7.26315891370177270000e-003) (30, 3.82822714745998380000e-002) (31, 1.67559739202260970000e-002) (32, 6.66997879743576050000e-002) (33, 2.84937143325805660000e-001) (34, 5.72197847068309780000e-002) (35, 2.03433874994516370000e-002) (36, 1.85947641730308530000e-001) (37, -7.84351900219917300000e-002) (38, -4.76313754916191100000e-003) (39, -6.59291865304112430000e-003) (40, 2.51847773790359500000e-001) (41, -9.20645296573638920000e-002) (42, 1.16697913035750390000e-002) (43, -2.30362964794039730000e-003) (44, 2.38917663693428040000e-001) (45, -6.12712018191814420000e-002) (46, -3.23373973369598390000e-002) (47, 8.94428938627243040000e-002) (48, 9.40453261137008670000e-002) (49, 6.91247507929801940000e-002) (50, 2.76510547846555710000e-002) (51, -4.16437461972236630000e-002) (52, 2.95355566777288910000e-003) (53, -7.16324448585510250000e-002) (54, -8.60173031687736510000e-002) (55, -1.42953880131244660000e-002) (56, 1.19857616722583770000e-001) (57, -9.49367787688970570000e-003) (58, -5.60968667268753050000e-002) (59, 5.28967306017875670000e-002) (60, -5.33016286790370940000e-002) (61, 1.88973650336265560000e-001) (62, 2.60480791330337520000e-002) (63, -6.84059858322143550000e-002) (64, 2.45671160519123080000e-002) (65, -1.17109708487987520000e-001) (66, 7.18913832679390910000e-003) (67, -1.32011817768216130000e-002) (68, -1.78338229656219480000e-001) (69, 1.40393525362014770000e-001) (70, -7.54032060503959660000e-002) (71, 2.40104589611291890000e-002) (72, 6.28494545817375180000e-002) (73, 5.41008710861206050000e-002) (74, 5.58035150170326230000e-002) (75, 1.18507798761129380000e-002) (76, -3.84238548576831820000e-002) (0, 1.64932191371917720000e-001) (1, -1.61776185035705570000e-001) (2, -6.66272938251495360000e-002) (3, 8.95935073494911190000e-002) (4, 1.83986082673072810000e-001) (5, -3.91605138778686520000e-001) (6, -7.53064677119255070000e-002) (7, 7.40077570080757140000e-002) (8, 3.23366463184356690000e-001) (9, -4.59855556488037110000e-001) (10, -9.33611914515495300000e-002) (11, 9.62026193737983700000e-002) (12, 1.08803100883960720000e-001) (13, -4.37967628240585330000e-001) (14, -5.28601706027984620000e-002) (15, -2.44917105883359910000e-002) (16, -2.41555005311965940000e-001) (17, -9.34773758053779600000e-002) (18, 4.43136692047119140000e-002) (19, -6.53255498036742210000e-003) (20, -1.08473645523190500000e-002) (21, -1.07229046523571010000e-001) (22, 6.79153278470039370000e-002) (23, 2.52815876156091690000e-002) (24, -4.35112603008747100000e-002) (25, 1.64306405931711200000e-002) (26, -2.26756259799003600000e-002) (27, 8.88522043824195860000e-002) (28, 2.09082197397947310000e-002) (29, -2.19105817377567290000e-002) (30, 1.98624432086944580000e-002) (31, -8.23304429650306700000e-002) (32, -3.91713492572307590000e-002) (33, 9.03752371668815610000e-002) (34, -2.25926935672760010000e-003) (35, 6.37537762522697450000e-002) (36, 8.37175026535987850000e-002) (37, 1.45501628518104550000e-001) (38, -6.17477409541606900000e-002) (39, -6.30442425608634950000e-002) (40, 1.85767024755477910000e-001) (41, 2.18708932399749760000e-001) (42, -9.53710079193115230000e-002) (43, 8.68058204650878910000e-002) (44, -2.75454252958297730000e-001) (45, 6.24523878097534180000e-001) (46, 4.03091534972190860000e-002) (47, -6.68049007654190060000e-002) (48, -1.93435773253440860000e-001) (49, 2.70464450120925900000e-001) (50, 2.25903689861297610000e-002) (51, 5.21552599966526030000e-002) (52, -1.52194797992706300000e-001) (53, 1.54071643948554990000e-001) (54, -5.30683398246765140000e-002) (55, 2.29525472968816760000e-002) (56, -2.20784306526184080000e-001) (57, 4.65734116733074190000e-002) (58, -1.10480040311813350000e-001) (59, -5.72510994970798490000e-002) (60, -8.97234380245208740000e-002) (61, 2.02245026826858520000e-001) (62, 8.33323523402214050000e-002) (63, 1.51086049154400830000e-002) (64, 5.47906123101711270000e-002) (65, 2.60584533214569090000e-001) (66, -5.10069429874420170000e-002) (67, -8.14037248492240910000e-002) (68, -1.93134751170873640000e-002) (69, 2.61956214904785160000e-001) (70, -3.30589944496750830000e-003) (71, -3.83529625833034520000e-002) (72, 1.83429382741451260000e-003) (73, 1.70026198029518130000e-002) (74, -3.88259179890155790000e-002) (75, -6.99238181114196780000e-002) (76, 3.41472141444683070000e-002) (0, -1.11899375915527340000e-001) (1, 1.46804824471473690000e-001) (2, 1.96594633162021640000e-002) (3, 6.55517578125000000000e-002) (4, -1.96489155292510990000e-001) (5, 1.67391642928123470000e-001) (6, 6.80047944188117980000e-002) (7, -7.92484208941459660000e-002) (8, -3.56278836727142330000e-001) (9, 2.53836661577224730000e-001) (10, -6.08316399157047270000e-002) (11, 9.29131135344505310000e-002) (12, 2.56356634199619290000e-002) (13, 8.09639170765876770000e-002) (14, -2.76823490858078000000e-002) (15, -9.65073145925998690000e-003) (16, 1.40088632702827450000e-001) (17, 1.23437531292438510000e-001) (18, -6.39908015727996830000e-002) (19, -6.24770075082778930000e-002) (20, -2.63284463435411450000e-002) (21, 2.83577553927898410000e-002) (22, 9.69931334257125850000e-002) (23, -1.02577440440654750000e-001) (24, 6.16021417081356050000e-002) (25, 1.68012902140617370000e-002) (26, -3.32268141210079190000e-002) (27, 8.49649384617805480000e-002) (28, -8.85604973882436750000e-003) (29, -1.61206014454364780000e-002) (30, 2.83733755350112920000e-002) (31, -4.73292022943496700000e-002) (32, -1.32870957255363460000e-001) (33, 2.48949527740478520000e-001) (34, 6.09144195914268490000e-002) (35, -7.01566860079765320000e-002) (36, -4.20568026602268220000e-002) (37, -2.27472573518753050000e-001) (38, 6.23824819922447200000e-003) (39, -3.48833273164927960000e-003) (40, -1.58442348241806030000e-001) (41, -1.73862949013710020000e-001) (42, -4.27535921335220340000e-002) (43, 7.34094753861427310000e-002) (44, 2.72264122962951660000e-001) (45, -5.33140838146209720000e-001) (46, 2.77450104476884010000e-004) (47, -9.07876938581466670000e-002) (48, 1.86441764235496520000e-001) (49, -2.35407456755638120000e-001) (50, 8.85636582970619200000e-002) (51, 4.62603494524955750000e-002) (52, 1.47419512271881100000e-001) (53, -1.72792375087738040000e-001) (54, 4.04711812734603880000e-002) (55, -5.39170093834400180000e-002) (56, 1.20472036302089690000e-001) (57, -1.49141296744346620000e-001) (58, 1.99084822088480000000e-002) (59, 5.59397675096988680000e-002) (60, -7.03866034746170040000e-002) (61, 1.25014662742614750000e-001) (62, 2.90201487950980660000e-003) (63, -1.02397955954074860000e-001) (64, 2.66469866037368770000e-002) (65, -3.70715111494064330000e-001) (66, -1.27378413453698160000e-002) (67, -4.03499864041805270000e-002) (68, 5.49716781824827190000e-003) (69, -1.60788729786872860000e-001) (70, -1.21428690850734710000e-001) (71, 7.45849832892417910000e-002) (72, -4.75855693221092220000e-002) (73, -1.41175419092178340000e-001) (74, 3.56573089957237240000e-002) (75, 6.18770979344844820000e-002) (76, -5.22953011095523830000e-002) (0, 2.13992446660995480000e-001) (1, -8.79546105861663820000e-002) (2, -9.16050150990486150000e-002) (3, -9.53918471932411190000e-002) (4, 3.84533792734146120000e-001) (5, -3.52240055799484250000e-002) (6, -6.99757412075996400000e-002) (7, -2.17716558836400510000e-003) (8, 3.13302427530288700000e-001) (9, 7.53091424703598020000e-002) (10, -1.83997806161642070000e-002) (11, -5.13147749006748200000e-002) (12, 2.13371291756629940000e-001) (13, 3.18129241466522220000e-001) (14, 1.49039283394813540000e-001) (15, -6.46796301007270810000e-002) (16, 7.52634704113006590000e-001) (17, 1.17912501096725460000e-001) (18, 5.17800711095333100000e-002) (19, -4.68617565929889680000e-002) (20, 3.30855548381805420000e-001) (21, 1.71171605587005620000e-001) (22, -8.46619904041290280000e-003) (23, 3.50626721046864990000e-003) (24, 6.82651018723845480000e-003) (25, 5.46099953353405000000e-002) (26, -2.59878598153591160000e-002) (27, 7.81906768679618840000e-002) (28, -3.07959709316492080000e-002) (29, -3.64343523979187010000e-002) (30, -7.11689367890357970000e-002) (31, -4.33317292481660840000e-003) (32, -6.83360025286674500000e-002) (33, -9.01377856731414790000e-001) (34, 7.50910192728042600000e-002) (35, 4.56991419196128850000e-002) (36, -3.77117723226547240000e-001) (37, -9.86484438180923460000e-003) (38, 1.11939683556556700000e-001) (39, -1.01637907326221470000e-001) (40, -8.79485487937927250000e-001) (41, -6.09729513525962830000e-002) (42, 6.67039901018142700000e-002) (43, -6.62846416234970090000e-002) (44, -5.88860332965850830000e-001) (45, 2.19072192907333370000e-001) (46, 4.11630198359489440000e-002) (47, 4.84938584268093110000e-002) (48, -1.50558263063430790000e-001) (49, 1.21145201846957210000e-002) (50, 3.04612684994935990000e-002) (51, -1.04019023478031160000e-001) 